/* Generated by Edge Impulse
 *
 * Permission is hereby granted, free of charge, to any person obtaining a copy
 * of this software and associated documentation files (the "Software"), to deal
 * in the Software without restriction, including without limitation the rights
 * to use, copy, modify, merge, publish, distribute, sublicense, and/or sell
 * copies of the Software, and to permit persons to whom the Software is
 * furnished to do so, subject to the following conditions:
 *
 * The above copyright notice and this permission notice shall be included in
 * all copies or substantial portions of the Software.
 *
 * THE SOFTWARE IS PROVIDED "AS IS", WITHOUT WARRANTY OF ANY KIND, EXPRESS OR
 * IMPLIED, INCLUDING BUT NOT LIMITED TO THE WARRANTIES OF MERCHANTABILITY,
 * FITNESS FOR A PARTICULAR PURPOSE AND NONINFRINGEMENT. IN NO EVENT SHALL THE
 * AUTHORS OR COPYRIGHT HOLDERS BE LIABLE FOR ANY CLAIM, DAMAGES OR OTHER
 * LIABILITY, WHETHER IN AN ACTION OF CONTRACT, TORT OR OTHERWISE, ARISING FROM,
 * OUT OF OR IN CONNECTION WITH THE SOFTWARE OR THE USE OR OTHER DEALINGS IN THE
 * SOFTWARE.
 */
// Generated on: 13.06.2022 21:59:10

#include <stdio.h>
#include <stdlib.h>
#include <vector>
#include "edge-impulse-sdk/tensorflow/lite/c/builtin_op_data.h"
#include "edge-impulse-sdk/tensorflow/lite/c/common.h"
#include "edge-impulse-sdk/tensorflow/lite/micro/micro_mutable_op_resolver.h"
#include "edge-impulse-sdk/porting/ei_classifier_porting.h"

#if EI_CLASSIFIER_PRINT_STATE
#if defined(__cplusplus) && EI_C_LINKAGE == 1
extern "C" {
    extern void ei_printf(const char *format, ...);
}
#else
extern void ei_printf(const char *format, ...);
#endif
#endif

#if defined __GNUC__
#define ALIGN(X) __attribute__((aligned(X)))
#elif defined _MSC_VER
#define ALIGN(X) __declspec(align(X))
#elif defined __TASKING__
#define ALIGN(X) __align(X)
#endif

using namespace tflite;
using namespace tflite::ops;
using namespace tflite::ops::micro;

namespace {

constexpr int kTensorArenaSize = 637632;

#if defined(EI_CLASSIFIER_ALLOCATION_STATIC)
uint8_t tensor_arena[kTensorArenaSize] ALIGN(16);
#elif defined(EI_CLASSIFIER_ALLOCATION_STATIC_HIMAX)
#pragma Bss(".tensor_arena")
uint8_t tensor_arena[kTensorArenaSize] ALIGN(16);
#pragma Bss()
#elif defined(EI_CLASSIFIER_ALLOCATION_STATIC_HIMAX_GNU)
uint8_t tensor_arena[kTensorArenaSize] ALIGN(16) __attribute__((section(".tensor_arena")));
#else
#define EI_CLASSIFIER_ALLOCATION_HEAP 1
uint8_t* tensor_arena = NULL;
#endif

static uint8_t* tensor_boundary;
static uint8_t* current_location;

template <int SZ, class T> struct TfArray {
  int sz; T elem[SZ];
};
enum used_operators_e {
  OP_CONV_2D, OP_DEPTHWISE_CONV_2D, OP_PAD, OP_ADD, OP_SOFTMAX,  OP_LAST
};
struct TensorInfo_t { // subset of TfLiteTensor used for initialization from constant memory
  TfLiteAllocationType allocation_type;
  TfLiteType type;
  void* data;
  TfLiteIntArray* dims;
  size_t bytes;
  TfLiteQuantization quantization;
};
struct NodeInfo_t { // subset of TfLiteNode used for initialization from constant memory
  struct TfLiteIntArray* inputs;
  struct TfLiteIntArray* outputs;
  void* builtin_data;
  used_operators_e used_op_index;
};

TfLiteContext ctx{};
TfLiteTensor tflTensors[71];
TfLiteEvalTensor tflEvalTensors[71];
TfLiteRegistration registrations[OP_LAST];
TfLiteNode tflNodes[27];

const TfArray<4, int> tensor_dimension0 = { 4, { 1,160,160,1 } };
const TfArray<1, float> quant0_scale = { 1, { 0.0039215688593685627, } };
const TfArray<1, int> quant0_zero = { 1, { -128 } };
const TfLiteAffineQuantization quant0 = { (TfLiteFloatArray*)&quant0_scale, (TfLiteIntArray*)&quant0_zero, 0 };
const ALIGN(16) int32_t tensor_data1[4*2] = { 
  0, 0, 
  0, 1, 
  0, 1, 
  0, 0, 
};
const TfArray<2, int> tensor_dimension1 = { 2, { 4,2 } };
const ALIGN(16) int8_t tensor_data2[16*3*3*1] = { 
  /* [0][0][][] */ -84, -108, -29, 
  /* [0][1][][] */ 67, -36, 17, 
  /* [0][2][][] */ 32, 127, 20, 
  /* [1][0][][] */ 105, -95, -10, 
  /* [1][1][][] */ -127, 104, 23, 
  /* [1][2][][] */ 14, -2, -13, 
  /* [2][0][][] */ -23, -2, -47, 
  /* [2][1][][] */ 36, 95, 127, 
  /* [2][2][][] */ -12, -94, -79, 
  /* [3][0][][] */ 121, 127, 59, 
  /* [3][1][][] */ 3, -21, -14, 
  /* [3][2][][] */ -101, -126, -43, 
  /* [4][0][][] */ 17, -50, 3, 
  /* [4][1][][] */ 13, -127, 1, 
  /* [4][2][][] */ 8, -84, -10, 
  /* [5][0][][] */ -50, 23, -10, 
  /* [5][1][][] */ -127, 23, -6, 
  /* [5][2][][] */ -90, 20, -4, 
  /* [6][0][][] */ -16, 79, 127, 
  /* [6][1][][] */ -50, 56, -15, 
  /* [6][2][][] */ -36, -51, -87, 
  /* [7][0][][] */ 34, 26, -12, 
  /* [7][1][][] */ 127, 75, 1, 
  /* [7][2][][] */ 34, 8, -15, 
  /* [8][0][][] */ -21, -31, 52, 
  /* [8][1][][] */ -54, -87, 127, 
  /* [8][2][][] */ -26, -61, 96, 
  /* [9][0][][] */ -27, 47, -14, 
  /* [9][1][][] */ -24, 127, -14, 
  /* [9][2][][] */ -14, 92, -6, 
  /* [10][0][][] */ 25, 88, 12, 
  /* [10][1][][] */ -37, -127, -29, 
  /* [10][2][][] */ 12, 40, 18, 
  /* [11][0][][] */ 7, -19, 10, 
  /* [11][1][][] */ 65, -94, 35, 
  /* [11][2][][] */ -85, 127, -47, 
  /* [12][0][][] */ -41, 49, -10, 
  /* [12][1][][] */ -127, 114, 6, 
  /* [12][2][][] */ -78, 79, 5, 
  /* [13][0][][] */ 81, 18, -18, 
  /* [13][1][][] */ 127, 110, -7, 
  /* [13][2][][] */ 72, 120, 51, 
  /* [14][0][][] */ -30, -28, 48, 
  /* [14][1][][] */ 44, 98, -127, 
  /* [14][2][][] */ -16, -70, 80, 
  /* [15][0][][] */ -75, -15, 20, 
  /* [15][1][][] */ -127, -125, 14, 
  /* [15][2][][] */ -24, -77, -11, 
};
const TfArray<4, int> tensor_dimension2 = { 4, { 16,3,3,1 } };
const TfArray<16, float> quant2_scale = { 16, { 0.071090623736381531, 0.35248959064483643, 0.087244786322116852, 0.049781147390604019, 0.0057372190058231354, 0.0065870746038854122, 0.044351477175951004, 0.0064798127859830856, 0.053397968411445618, 0.010397014208137989, 0.14573043584823608, 0.30875948071479797, 0.10483936965465546, 0.004098283126950264, 0.29018485546112061, 0.0095276087522506714, } };
const TfArray<16, int> quant2_zero = { 16, { 0,0,0,0,0,0,0,0,0,0,0,0,0,0,0,0 } };
const TfLiteAffineQuantization quant2 = { (TfLiteFloatArray*)&quant2_scale, (TfLiteIntArray*)&quant2_zero, 0 };
const ALIGN(16) int32_t tensor_data3[16] = { 286, 136, -116, 557, 59764, 54818, 3357, 13551, 4194, 9798, 804, 37, 4310, 8424, 119, 26303, };
const TfArray<1, int> tensor_dimension3 = { 1, { 16 } };
const TfArray<16, float> quant3_scale = { 16, { 0.00027878678520210087, 0.001382312155328691, 0.00034213642356917262, 0.00019522020011208951, 2.2498899852507748e-05, 2.5831666789599694e-05, 0.00017392737208865583, 2.5411032765987329e-05, 0.0002094038063660264, 4.0772607462713495e-05, 0.00057149195345118642, 0.0012108215596526861, 0.00041113479528576136, 1.607169906492345e-05, 0.0011379799107089639, 3.7363173760240898e-05, } };
const TfArray<16, int> quant3_zero = { 16, { 0,0,0,0,0,0,0,0,0,0,0,0,0,0,0,0 } };
const TfLiteAffineQuantization quant3 = { (TfLiteFloatArray*)&quant3_scale, (TfLiteIntArray*)&quant3_zero, 0 };
const ALIGN(16) int8_t tensor_data4[1*3*3*16] = { 
  /* [0][0][][] */ 4,-9,9,2,-19,11,8,16,-7,-11,-1,-4,-3,-5,2,-1, 10,-10,3,2,14,-2,10,-26,-9,9,-7,85,-11,22,2,-1, -1,-5,-4,1,2,-14,-5,11,3,2,-6,-4,-1,-3,-3,-1, 
  /* [0][1][][] */ 10,-10,7,3,127,-24,-127,-21,127,127,1,0,117,-21,-5,-19, -127,127,127,-1,-87,-92,-20,-102,12,-105,127,127,127,127,127,127, 17,-9,-1,-1,-10,127,1,-10,-1,-12,-5,3,8,-2,-14,-9, 
  /* [0][2][][] */ -3,-4,3,-13,-17,15,46,7,-7,-7,-5,6,-3,3,-1,-12, 18,-21,-2,-127,7,-16,-11,127,-10,1,0,-3,-16,-54,-10,-37, 0,-8,2,-3,2,-5,-7,-2,-2,2,-6,6,-2,-3,-6,-12, 
};
const TfArray<4, int> tensor_dimension4 = { 4, { 1,3,3,16 } };
const TfArray<16, float> quant4_scale = { 16, { 0.0046810200437903404, 0.010135922580957413, 0.0073606055229902267, 0.0077923708595335484, 0.059457719326019287, 0.050869394093751907, 0.0070784548297524452, 0.043438989669084549, 0.013678526505827904, 0.059801094233989716, 0.010739999823272228, 0.0092055108398199081, 0.0047617917880415916, 0.0099710766226053238, 0.010340733453631401, 0.038026902824640274, } };
const TfArray<16, int> quant4_zero = { 16, { 0,0,0,0,0,0,0,0,0,0,0,0,0,0,0,0 } };
const TfLiteAffineQuantization quant4 = { (TfLiteFloatArray*)&quant4_scale, (TfLiteIntArray*)&quant4_zero, 3 };
const ALIGN(16) int32_t tensor_data5[16] = { 20525, -212, 164, 2945, -941, 339, 10263, 1073, -62, 94, -1934, 2657, -464, -1184, -364, -848, };
const TfArray<1, int> tensor_dimension5 = { 1, { 16 } };
const TfArray<16, float> quant5_scale = { 16, { 0.000110141649201978, 0.00023849229910410941, 0.00017319072503596544, 0.00018334991182200611, 0.0013990051811560988, 0.0011969269253313541, 0.00016655187937431037, 0.0010220939293503761, 0.00032184767769649625, 0.0014070846373215318, 0.00025270588230341673, 0.00021660025231540203, 0.00011204215843463317, 0.00023461357341147959, 0.00024331138411071151, 0.00089475070126354694, } };
const TfArray<16, int> quant5_zero = { 16, { 0,0,0,0,0,0,0,0,0,0,0,0,0,0,0,0 } };
const TfLiteAffineQuantization quant5 = { (TfLiteFloatArray*)&quant5_scale, (TfLiteIntArray*)&quant5_zero, 0 };
const ALIGN(16) int8_t tensor_data6[8*1*1*16] = { 
  /* [0][0][][] */ -14,-17,-18,-60,-26,-39,18,-15,33,8,-33,-6,104,127,-22,-101, 
  /* [1][0][][] */ 127,-63,-47,19,-45,71,-67,-42,-36,86,-39,-57,-9,5,-60,-16, 
  /* [2][0][][] */ -44,-95,44,40,45,-64,-75,-22,37,-96,27,-127,51,-21,-73,23, 
  /* [3][0][][] */ 44,8,15,8,-15,75,-52,-24,127,45,10,17,2,-16,9,24, 
  /* [4][0][][] */ -90,-31,-26,-127,-4,32,50,-124,38,-19,-45,-33,-112,32,-39,-18, 
  /* [5][0][][] */ 93,49,74,-23,49,-49,-126,-127,-17,-78,58,49,-56,51,65,-43, 
  /* [6][0][][] */ 108,44,-127,-86,22,-71,3,-97,-41,20,-125,99,95,-102,11,70, 
  /* [7][0][][] */ -127,-4,96,-20,-64,4,-1,-51,-56,61,87,-33,57,-26,28,28, 
};
const TfArray<4, int> tensor_dimension6 = { 4, { 8,1,1,16 } };
const TfArray<8, float> quant6_scale = { 8, { 0.0086510814726352692, 0.0094838961958885193, 0.0071156383492052555, 0.010343385860323906, 0.0096075898036360741, 0.0068501867353916168, 0.0069722738116979599, 0.011045204475522041, } };
const TfArray<8, int> quant6_zero = { 8, { 0,0,0,0,0,0,0,0 } };
const TfLiteAffineQuantization quant6 = { (TfLiteFloatArray*)&quant6_scale, (TfLiteIntArray*)&quant6_zero, 0 };
const ALIGN(16) int32_t tensor_data7[8] = { -6926, -3411, 11300, -10185, 21202, 7161, -8686, 11314, };
const TfArray<1, int> tensor_dimension7 = { 1, { 8 } };
const TfArray<8, float> quant7_scale = { 8, { 0.00020355486776679754, 0.0002231505059171468, 0.00016742678417358547, 0.00024337378272321075, 0.00022606094717048109, 0.00016118086932692677, 0.00016405350470449775, 0.0002598871651571244, } };
const TfArray<8, int> quant7_zero = { 8, { 0,0,0,0,0,0,0,0 } };
const TfLiteAffineQuantization quant7 = { (TfLiteFloatArray*)&quant7_scale, (TfLiteIntArray*)&quant7_zero, 0 };
const ALIGN(16) int8_t tensor_data8[48*1*1*8] = { 
  /* [0][0][][] */ -33,28,0,-20,-70,-33,-127,35, 
  /* [1][0][][] */ 83,-69,-43,-53,127,-78,109,9, 
  /* [2][0][][] */ -109,123,-51,-127,38,-32,-30,41, 
  /* [3][0][][] */ 60,34,94,-2,111,120,127,-15, 
  /* [4][0][][] */ -93,-124,58,2,-69,-127,-9,-21, 
  /* [5][0][][] */ 127,-40,78,66,-76,-9,-9,-24, 
  /* [6][0][][] */ 35,35,127,-28,48,-37,-42,30, 
  /* [7][0][][] */ 24,14,-127,-30,-33,103,92,-62, 
  /* [8][0][][] */ -12,127,-27,0,63,100,49,39, 
  /* [9][0][][] */ -15,127,-56,76,26,-119,22,120, 
  /* [10][0][][] */ -1,-127,-5,-28,-81,-120,-60,-74, 
  /* [11][0][][] */ -127,-78,106,52,-6,-58,99,68, 
  /* [12][0][][] */ -28,36,-127,78,31,-52,-61,87, 
  /* [13][0][][] */ 102,-127,95,81,13,37,38,-64, 
  /* [14][0][][] */ -13,102,-38,-127,-12,-83,-26,-58, 
  /* [15][0][][] */ 41,109,29,-7,36,-63,106,-127, 
  /* [16][0][][] */ -107,-127,-65,94,-50,27,-2,71, 
  /* [17][0][][] */ -23,-117,-127,97,-55,89,-46,90, 
  /* [18][0][][] */ -114,-61,-43,90,-15,76,-12,127, 
  /* [19][0][][] */ 45,-127,87,-116,8,-61,36,-22, 
  /* [20][0][][] */ -12,73,40,16,37,127,89,-23, 
  /* [21][0][][] */ 32,112,49,-33,46,-67,96,-127, 
  /* [22][0][][] */ 25,17,107,13,-3,127,32,-40, 
  /* [23][0][][] */ -94,-78,30,-66,76,104,-51,-127, 
  /* [24][0][][] */ -104,-94,41,-91,127,126,-48,-125, 
  /* [25][0][][] */ 127,16,-58,-18,17,29,-61,-13, 
  /* [26][0][][] */ -125,-28,-127,-18,-48,-33,24,-6, 
  /* [27][0][][] */ 79,33,-1,-63,-127,-21,86,96, 
  /* [28][0][][] */ -127,-110,0,51,-87,-107,10,12, 
  /* [29][0][][] */ 115,113,39,-127,25,29,-66,-103, 
  /* [30][0][][] */ -84,-87,32,-63,67,103,-42,-127, 
  /* [31][0][][] */ 46,47,-4,127,10,-65,10,17, 
  /* [32][0][][] */ -36,127,-7,38,20,65,-16,50, 
  /* [33][0][][] */ -46,127,-82,24,25,-35,-22,1, 
  /* [34][0][][] */ -127,-107,-47,106,-9,7,29,118, 
  /* [35][0][][] */ -46,127,-32,-6,69,111,47,69, 
  /* [36][0][][] */ 58,30,-7,-54,-127,-35,98,104, 
  /* [37][0][][] */ -64,123,34,27,-127,103,-18,-115, 
  /* [38][0][][] */ 34,43,24,20,127,76,113,51, 
  /* [39][0][][] */ -23,-68,42,-25,10,38,-98,127, 
  /* [40][0][][] */ -65,-55,-56,127,-34,6,20,60, 
  /* [41][0][][] */ 127,12,57,108,-44,-17,-5,-32, 
  /* [42][0][][] */ -51,8,-78,-127,50,-116,8,84, 
  /* [43][0][][] */ 22,-12,84,0,34,127,101,6, 
  /* [44][0][][] */ -33,-23,-70,127,52,11,-35,-36, 
  /* [45][0][][] */ 58,122,98,-127,54,-52,22,-109, 
  /* [46][0][][] */ -33,-127,-36,29,-10,38,-65,119, 
  /* [47][0][][] */ 38,40,127,8,74,115,118,-5, 
};
const TfArray<4, int> tensor_dimension8 = { 4, { 48,1,1,8 } };
const TfArray<48, float> quant8_scale = { 48, { 0.0043832277879118919, 0.0046331197954714298, 0.0029234152752906084, 0.0025966765824705362, 0.00061531027313321829, 0.0030964964535087347, 0.0054416591301560402, 0.0027021253481507301, 0.0031648299191147089, 0.0055287363938987255, 0.0034201436210423708, 0.0027273125015199184, 0.0025846711359918118, 0.003774347947910428, 0.0032951938919723034, 0.0030152611434459686, 0.0024099273141473532, 0.00052723742555826902, 0.0024916664697229862, 0.0036833265330642462, 0.0037780646234750748, 0.001799879246391356, 0.0048405211418867111, 0.0035895919427275658, 0.0043680737726390362, 0.0084614874795079231, 0.0032141932751983404, 0.010296082124114037, 0.0020361999049782753, 0.00055931980023160577, 0.0033293070737272501, 0.0074534080922603607, 0.0042219944298267365, 0.0038184232544153929, 0.0029585410375148058, 0.0035939787048846483, 0.0051684710197150707, 0.0064159249886870384, 0.0033475433010607958, 0.0047714877873659134, 0.0036986200138926506, 0.0030065730679780245, 0.0031446400098502636, 0.0045211594551801682, 0.004580420907586813, 0.0021553798578679562, 0.0025694651994854212, 0.0031995116733014584, } };
const TfArray<48, int> quant8_zero = { 48, { 0,0,0,0,0,0,0,0,0,0,0,0,0,0,0,0,0,0,0,0,0,0,0,0,0,0,0,0,0,0,0,0,0,0,0,0,0,0,0,0,0,0,0,0,0,0,0,0 } };
const TfLiteAffineQuantization quant8 = { (TfLiteFloatArray*)&quant8_scale, (TfLiteIntArray*)&quant8_zero, 0 };
const ALIGN(16) int32_t tensor_data9[48] = { 968, -220, -428, 1598, 14116, 1748, -285, 2544, 1270, 1102, 204, 2983, 719, 627, -723, 391, 2535, 16496, 2438, -696, 1015, -1121, -7, 1708, -322, -446, 1439, -20, 3576, 15193, 1852, -18, 337, -99, 2016, -13, 305, -163, 1326, 1080, 1130, 1926, 329, -271, 453, 2145, 1204, -247, };
const TfArray<1, int> tensor_dimension9 = { 1, { 48 } };
const TfArray<48, float> quant9_scale = { 48, { 0.00051660428289324045, 0.00054605636978521943, 0.00034455175045877695, 0.00030604255152866244, 7.2520051617175341e-05, 0.00036495097447186708, 0.00064135028515011072, 0.00031847067293711007, 0.00037300473195500672, 0.00065161316888406873, 0.00040309582254849374, 0.00032143920543603599, 0.00030462761060334742, 0.00044484209502115846, 0.0003883693425450474, 0.00035537665826268494, 0.00028403240139596164, 6.2139850342646241e-05, 0.00029366611852310598, 0.00043411439401097596, 0.00044528013677336276, 0.0002121325524058193, 0.00057050056057050824, 0.00042306690011173487, 0.00051481823902577162, 0.00099726521875709295, 0.0003788226458709687, 0.0012134893331676722, 0.00023998515098355711, 6.5921056375373155e-05, 0.00039238989120349288, 0.00087845366215333343, 0.00049760140245780349, 0.00045003677951171994, 0.00034869165392592549, 0.00042358390055596828, 0.00060915248468518257, 0.00075617659604176879, 0.00039453920908272266, 0.00056236435193568468, 0.00043591685243882239, 0.00035435266909189522, 0.00037062514456920326, 0.0005328608094714582, 0.00053984532132744789, 0.00025403161998838186, 0.00030283542582765222, 0.0003770922776311636, } };
const TfArray<48, int> quant9_zero = { 48, { 0,0,0,0,0,0,0,0,0,0,0,0,0,0,0,0,0,0,0,0,0,0,0,0,0,0,0,0,0,0,0,0,0,0,0,0,0,0,0,0,0,0,0,0,0,0,0,0 } };
const TfLiteAffineQuantization quant9 = { (TfLiteFloatArray*)&quant9_scale, (TfLiteIntArray*)&quant9_zero, 0 };
const ALIGN(16) int8_t tensor_data10[1*3*3*48] = { 
  /* [0][0][][] */ -34,-95,-2,-22,127,-70,72,-56,-88,-61,-26,-35,120,34,65,-127,68,-13,4,-15,-125,127,-3,4,-17,62,55,-29,57,-75,7,-28,-111,-93,49,78,29,94,99,-63,-127,-10,28,69,44,-127,101,89, -33,-107,-62,48,-80,97,56,-61,-79,36,61,-89,123,91,107,-73,-80,-70,37,-45,-120,101,-54,93,-80,77,79,-114,79,-51,-2,-110,-61,-88,82,127,101,127,108,-64,-125,-70,72,84,76,115,101,77, 16,-54,-69,85,-46,-32,37,-7,122,31,49,-67,27,55,-41,-6,-77,-18,40,-28,-56,29,-104,-2,-65,38,20,-69,14,59,91,-61,-10,10,1,52,73,78,20,-15,-17,84,64,28,34,25,23,-123, 
  /* [0][1][][] */ -116,-106,-16,-81,-74,-82,93,-108,-127,-127,95,-76,111,64,-127,-70,127,-127,-64,-70,-87,126,-52,1,-17,100,102,-64,-110,-78,8,-43,-99,-127,-127,66,53,81,-1,-94,55,-21,75,125,80,115,126,-127, -127,-127,-127,-107,-21,127,127,-127,118,67,127,-127,127,127,69,-96,55,-89,-127,-127,-127,93,-127,127,-125,127,127,-127,-127,127,-20,-127,-127,-117,59,120,127,116,-22,-127,108,-108,127,127,127,-1,127,120, -54,-85,-110,127,86,-48,50,-31,107,30,34,-54,22,69,79,-40,-20,2,-12,-51,-62,17,-80,-21,-127,41,22,-92,-55,39,127,-75,-57,3,75,74,77,75,-42,-30,54,127,83,20,50,-56,22,31, 
  /* [0][2][][] */ -76,-21,7,-1,-44,-26,24,-53,62,-55,16,-47,9,31,-39,-25,-74,-40,94,-59,-14,34,-83,-17,-17,71,68,-21,23,63,-4,-21,-9,-76,-42,38,36,15,-82,-31,23,-2,41,38,42,49,9,-62, -61,-50,-30,-88,96,53,56,-56,123,27,-33,-58,7,47,-122,-81,43,-3,51,-90,-56,33,-89,65,-90,76,87,-41,31,6,-39,-51,-65,-24,-56,41,40,26,-127,-71,31,-54,72,81,48,-115,28,6, -16,-41,-36,-28,-10,-21,25,-28,-75,28,-5,-8,1,17,48,-35,34,27,1,-64,-53,-28,-31,-31,-75,23,29,-18,8,-69,56,-40,-73,14,29,24,32,17,-78,-16,6,49,21,38,17,-11,11,50, 
};
const TfArray<4, int> tensor_dimension10 = { 4, { 1,3,3,48 } };
const TfArray<48, float> quant10_scale = { 48, { 0.0033495151437819004, 0.0042638354934751987, 0.0074434522539377213, 0.0087808668613433838, 0.039327409118413925, 0.0067382077686488628, 0.0056794979609549046, 0.0035226084291934967, 0.0051762065850198269, 0.0041147381998598576, 0.0026289767120033503, 0.0027898768894374371, 0.0026495468337088823, 0.0025864564813673496, 0.012275788001716137, 0.0085531128570437431, 0.0049477391876280308, 0.021361149847507477, 0.0059317667037248611, 0.0053279702551662922, 0.00492833461612463, 0.017583897337317467, 0.0048439833335578442, 0.012545120902359486, 0.0056564421392977238, 0.0021856436505913734, 0.0025631196331232786, 0.0036735015455633402, 0.007696238812059164, 0.040391385555267334, 0.012955456972122192, 0.0030402438715100288, 0.0033502879086881876, 0.0055648051202297211, 0.0064841010607779026, 0.0024513192474842072, 0.0032480391673743725, 0.0028678204398602247, 0.0060704699717462063, 0.0028493341524153948, 0.005375369917601347, 0.0064475126564502716, 0.0027615856379270554, 0.0033225447405129671, 0.0029094163328409195, 0.019615791738033295, 0.0025190499145537615, 0.010599102824926376, } };
const TfArray<48, int> quant10_zero = { 48, { 0,0,0,0,0,0,0,0,0,0,0,0,0,0,0,0,0,0,0,0,0,0,0,0,0,0,0,0,0,0,0,0,0,0,0,0,0,0,0,0,0,0,0,0,0,0,0,0 } };
const TfLiteAffineQuantization quant10 = { (TfLiteFloatArray*)&quant10_scale, (TfLiteIntArray*)&quant10_zero, 3 };
const ALIGN(16) int32_t tensor_data11[48] = { 8166, 5066, 2938, 1147, -1500, 75, 96, 32903, -3743, 418, 8957, 51050, 4638, 4755, 77, 10586, -1918, 14813, -137, 6374, 15677, 694, 3688, -7568, 9585, 2014, 1215, 11200, 2910, -1208, -7826, 9349, 2229, 419, -2187, 7518, -9744, 5468, 3772, 17738, -2054, 51, 7976, 3536, 4153, -135, 3653, -712, };
const TfArray<1, int> tensor_dimension11 = { 1, { 48 } };
const TfArray<48, float> quant11_scale = { 48, { 7.8812125138938427e-05, 0.00010032554564531893, 0.00017514005594421178, 0.00020660863083321601, 0.00092535081785172224, 0.00015854607045184821, 0.00013363524340093136, 8.2884907897096127e-05, 0.00012179309851489961, 9.6817369922064245e-05, 6.1858278058934957e-05, 6.564416253240779e-05, 6.2342282035388052e-05, 6.0857801145175472e-05, 0.000288842071313411, 0.00020124971342738718, 0.00011641739547485486, 0.00050261529395356774, 0.00013957098417449743, 0.00012536400754470378, 0.00011596081458264962, 0.00041373877320438623, 0.00011397607886465266, 0.00029517931398004293, 0.00013309276255313307, 5.1426912250462919e-05, 6.0308699175948277e-05, 8.6435335106216371e-05, 0.00018108797667082399, 0.00095038558356463909, 0.00030483427690342069, 7.1535148890689015e-05, 7.8830307757016271e-05, 0.00013093659072183073, 0.00015256708138622344, 5.7678102166391909e-05, 7.6424454164225608e-05, 6.7478125856723636e-05, 0.00014283458585850894, 6.7043154558632523e-05, 0.00012647929543163627, 0.00015170619008131325, 6.4978485170286149e-05, 7.8177523391786963e-05, 6.8456858571153134e-05, 0.00046154804294928908, 5.9271762438584119e-05, 0.00024939066497609019, } };
const TfArray<48, int> quant11_zero = { 48, { 0,0,0,0,0,0,0,0,0,0,0,0,0,0,0,0,0,0,0,0,0,0,0,0,0,0,0,0,0,0,0,0,0,0,0,0,0,0,0,0,0,0,0,0,0,0,0,0 } };
const TfLiteAffineQuantization quant11 = { (TfLiteFloatArray*)&quant11_scale, (TfLiteIntArray*)&quant11_zero, 0 };
const ALIGN(16) int8_t tensor_data12[8*1*1*48] = { 
  /* [0][0][][] */ -43,-10,32,12,-34,-12,11,8,-45,-5,-63,-59,-26,-63,-10,-31,44,-41,41,42,-14,33,-39,11,-2,-40,55,-15,-5,-17,19,12,80,33,38,-127,19,0,-22,-34,0,-16,43,50,36,6,27,2, 
  /* [1][0][][] */ -1,37,63,-23,-10,47,-50,-33,2,26,-16,-96,8,91,-15,61,-21,23,-24,-60,-1,-77,-34,29,-81,-15,-1,-111,-28,-13,37,-55,45,87,-50,8,127,-22,-2,46,-43,42,-77,-22,111,-14,-35,-20, 
  /* [2][0][][] */ -2,-20,-61,17,-1,48,23,-1,3,45,-3,23,64,-89,15,-58,33,-89,23,31,-30,46,-7,32,-25,58,-16,-66,16,-3,26,-69,-44,-80,28,-18,104,28,-16,-65,-12,31,87,37,127,22,17,29, 
  /* [3][0][][] */ -1,18,-63,41,17,-33,-61,-99,16,-15,-36,2,8,21,34,75,-5,10,-33,19,4,-87,27,-50,-70,-11,127,-12,-42,-2,-52,11,1,-71,10,-5,-17,-29,-16,94,-38,-37,2,18,41,9,-38,36, 
  /* [4][0][][] */ -23,-53,-2,7,32,-29,-12,-11,28,-29,60,-78,5,30,6,12,-17,-22,10,-17,-6,-51,-3,-16,13,-11,41,46,32,23,-10,24,-13,-6,1,-1,-65,94,34,-24,23,-21,-20,-21,-76,16,127,11, 
  /* [5][0][][] */ 41,-23,3,15,24,-43,39,-127,27,-35,-7,125,-81,72,20,-71,4,-95,26,6,-32,63,-34,-56,-59,75,-26,-1,-17,56,-51,-33,28,56,44,0,-41,-12,-52,-46,20,-32,-42,-5,-36,63,94,23, 
  /* [6][0][][] */ 47,-22,23,-13,-34,-16,-32,16,-37,8,-39,127,-40,-37,-9,50,13,44,18,28,43,-86,-16,18,20,46,-62,1,12,-33,15,34,10,15,-12,-3,8,-5,0,-2,-7,-14,39,54,-1,-28,69,-12, 
  /* [7][0][][] */ -24,-1,1,61,33,32,4,27,25,6,70,-5,120,109,65,53,44,52,-21,1,20,-17,-97,-24,17,-1,-27,69,36,-26,-33,-19,40,4,37,-102,-75,36,35,58,-42,29,84,127,-60,-26,-109,62, 
};
const TfArray<4, int> tensor_dimension12 = { 4, { 8,1,1,48 } };
const TfArray<8, float> quant12_scale = { 8, { 0.0097187012434005737, 0.0059326598420739174, 0.005517859011888504, 0.0071442830376327038, 0.0084628351032733917, 0.0062622572295367718, 0.010034436360001564, 0.0057500824332237244, } };
const TfArray<8, int> quant12_zero = { 8, { 0,0,0,0,0,0,0,0 } };
const TfLiteAffineQuantization quant12 = { (TfLiteFloatArray*)&quant12_scale, (TfLiteIntArray*)&quant12_zero, 0 };
const ALIGN(16) int32_t tensor_data13[8] = { 8175, 15736, -5371, 4628, -1089, 2975, -10961, -17915, };
const TfArray<1, int> tensor_dimension13 = { 1, { 8 } };
const TfArray<8, float> quant13_scale = { 8, { 0.00022867532970849425, 0.00013959199714008719, 0.00012983198394067585, 0.00016810078523121774, 0.00019912554125767201, 0.0001473472366342321, 0.00023610438802279532, 0.00013529605348594487, } };
const TfArray<8, int> quant13_zero = { 8, { 0,0,0,0,0,0,0,0 } };
const TfLiteAffineQuantization quant13 = { (TfLiteFloatArray*)&quant13_scale, (TfLiteIntArray*)&quant13_zero, 0 };
const ALIGN(16) int8_t tensor_data14[48*1*1*8] = { 
  /* [0][0][][] */ 61,127,-107,-123,4,94,26,65, 
  /* [1][0][][] */ 57,-65,44,-127,-37,66,-76,-34, 
  /* [2][0][][] */ -25,127,100,54,106,-8,38,7, 
  /* [3][0][][] */ 87,33,-92,40,-8,-108,-127,-16, 
  /* [4][0][][] */ -60,40,17,-41,-36,127,121,58, 
  /* [5][0][][] */ 29,82,-127,-73,55,74,23,-29, 
  /* [6][0][][] */ 10,127,63,77,83,-7,9,-107, 
  /* [7][0][][] */ 127,-21,-44,18,29,-2,104,7, 
  /* [8][0][][] */ 47,127,65,96,105,65,73,-73, 
  /* [9][0][][] */ 50,104,-127,-84,9,97,11,61, 
  /* [10][0][][] */ -63,-41,24,-52,-3,-39,-50,127, 
  /* [11][0][][] */ 1,-115,-127,-18,4,5,50,-27, 
  /* [12][0][][] */ 18,-108,-127,-31,-112,35,-71,44, 
  /* [13][0][][] */ -6,11,-92,107,-127,-29,-7,-8, 
  /* [14][0][][] */ -66,-39,-127,-15,39,-1,-13,-58, 
  /* [15][0][][] */ 27,-106,-127,8,-84,-28,-23,-13, 
  /* [16][0][][] */ 127,-61,-11,58,-76,22,25,92, 
  /* [17][0][][] */ -20,120,127,-39,-50,-7,-37,-23, 
  /* [18][0][][] */ 12,-127,53,87,-11,-64,41,-104, 
  /* [19][0][][] */ 127,-45,-66,39,-101,2,38,101, 
  /* [20][0][][] */ -33,-127,84,77,-23,-94,3,-75, 
  /* [21][0][][] */ -7,-47,-5,-21,127,-5,59,23, 
  /* [22][0][][] */ -127,23,-74,41,51,62,-87,-107, 
  /* [23][0][][] */ -116,-53,79,-1,-114,110,127,-59, 
  /* [24][0][][] */ -46,69,17,-35,-41,127,101,8, 
  /* [25][0][][] */ -52,-127,-125,-41,-35,-20,-28,-61, 
  /* [26][0][][] */ -7,51,-31,127,-110,45,-53,-14, 
  /* [27][0][][] */ 12,-127,33,67,17,-51,11,-121, 
  /* [28][0][][] */ 17,127,88,58,97,-23,26,-40, 
  /* [29][0][][] */ 113,30,-45,-28,57,-127,-109,42, 
  /* [30][0][][] */ 34,-14,34,-127,29,-15,19,-29, 
  /* [31][0][][] */ 52,-36,5,65,-8,32,13,127, 
  /* [32][0][][] */ -90,-71,4,-53,-68,127,51,71, 
  /* [33][0][][] */ -24,48,44,-34,37,127,-106,65, 
  /* [34][0][][] */ 34,127,-91,-51,-6,59,-67,54, 
  /* [35][0][][] */ 8,-127,40,52,-8,-68,38,-71, 
  /* [36][0][][] */ -10,-38,-100,-10,-127,-67,-24,9, 
  /* [37][0][][] */ -65,-127,59,82,-34,-91,-2,-54, 
  /* [38][0][][] */ -80,28,72,-70,-127,-86,-69,92, 
  /* [39][0][][] */ 61,-127,86,72,-40,-87,-20,-81, 
  /* [40][0][][] */ 9,61,20,54,-127,-21,-60,8, 
  /* [41][0][][] */ 111,118,-89,-127,51,20,3,18, 
  /* [42][0][][] */ 2,-26,-20,15,127,12,34,22, 
  /* [43][0][][] */ 127,28,76,32,-68,-25,55,99, 
  /* [44][0][][] */ 76,43,-24,9,87,-127,-104,25, 
  /* [45][0][][] */ 43,10,17,21,56,-127,-10,-47, 
  /* [46][0][][] */ 61,-45,2,127,37,68,28,71, 
  /* [47][0][][] */ -114,-61,79,70,-36,11,127,-85, 
};
const TfArray<4, int> tensor_dimension14 = { 4, { 48,1,1,8 } };
const TfArray<48, float> quant14_scale = { 48, { 0.0029351699631661177, 0.0032488335855305195, 0.0010028631659224629, 0.0027652883436530828, 0.0027289283461868763, 0.0038051565643399954, 0.0017720292089506984, 0.00091593357501551509, 0.0020578631665557623, 0.003890051506459713, 0.0037722878623753786, 0.0027527592610567808, 0.00079660332994535565, 0.003858550451695919, 0.0036201083566993475, 0.00070817791856825352, 0.0048633771948516369, 0.0028886531945317984, 0.0037120759952813387, 0.0031907465308904648, 0.0029915755148977041, 0.0032127888407558203, 0.006148993968963623, 0.00040249430458061397, 0.0019629073794931173, 0.0020300927571952343, 0.0010210743639618158, 0.0035534242633730173, 0.0015757610090076923, 0.0019424459896981716, 0.0070192194543778896, 0.0055744997225701809, 0.0027087710332125425, 0.003359244205057621, 0.0038977651856839657, 0.0043407473713159561, 0.0024683601222932339, 0.0042862086556851864, 0.0030853096395730972, 0.0033826071303337812, 0.0023886491544544697, 0.0031477510929107666, 0.0032487867865711451, 0.00229597557336092, 0.0019743770826607943, 0.0032612336799502373, 0.0050033093430101871, 0.0015910534420982003, } };
const TfArray<48, int> quant14_zero = { 48, { 0,0,0,0,0,0,0,0,0,0,0,0,0,0,0,0,0,0,0,0,0,0,0,0,0,0,0,0,0,0,0,0,0,0,0,0,0,0,0,0,0,0,0,0,0,0,0,0 } };
const TfLiteAffineQuantization quant14 = { (TfLiteFloatArray*)&quant14_scale, (TfLiteIntArray*)&quant14_zero, 0 };
const ALIGN(16) int32_t tensor_data15[48] = { 2709, 3443, 12837, 843, 2424, -1468, 6207, 14478, 3758, -523, 2762, -2403, 15853, -1445, 1456, 20511, -361, 1896, 360, 2411, 3160, 3115, 400, 37702, 5545, 3800, 13865, 1713, 6843, 4647, 535, 980, 1298, 1469, -278, 268, -3029, -397, 2760, 2137, 4741, 2014, 3346, 5145, 4799, 2895, 1567, 6915, };
const TfArray<1, int> tensor_dimension15 = { 1, { 48 } };
const TfArray<48, float> quant15_scale = { 48, { 0.00021836961968801916, 0.00024170544929802418, 7.4610623414628208e-05, 0.00020573084475472569, 0.0002030257455771789, 0.00028309455956332386, 0.00013183473492972553, 6.8143264797981828e-05, 0.00015310010348912328, 0.00028941052732989192, 0.00028064919752068818, 0.00020479870727285743, 5.926538142375648e-05, 0.00028706691227853298, 0.00026932740001939237, 5.268674431135878e-05, 0.00036182362237013876, 0.00021490888320840895, 0.00027616956504061818, 0.00023738390882499516, 0.0002225660573458299, 0.00023902380780782551, 0.00045747045078314841, 2.9944614652777091e-05, 0.00014603561430703849, 0.00015103405166883022, 7.5965494033880532e-05, 0.00026436627376824617, 0.00011723284842446446, 0.00014451333845499903, 0.00052221311489120126, 0.00041472943848930299, 0.00020152608340140432, 0.00024991974350996315, 0.0002899843966588378, 0.00032294122502207756, 0.00018364009156357497, 0.00031888368539512157, 0.00022953965526539832, 0.00025165788247250021, 0.00017770977865438908, 0.00023418515047524124, 0.0002417019713902846, 0.0001708150957711041, 0.00014688893861602992, 0.00024262798251584172, 0.00037223423714749515, 0.00011837056808872148, } };
const TfArray<48, int> quant15_zero = { 48, { 0,0,0,0,0,0,0,0,0,0,0,0,0,0,0,0,0,0,0,0,0,0,0,0,0,0,0,0,0,0,0,0,0,0,0,0,0,0,0,0,0,0,0,0,0,0,0,0 } };
const TfLiteAffineQuantization quant15 = { (TfLiteFloatArray*)&quant15_scale, (TfLiteIntArray*)&quant15_zero, 0 };
const ALIGN(16) int8_t tensor_data16[1*3*3*48] = { 
  /* [0][0][][] */ 5,-44,12,14,-26,-90,-52,61,-36,-3,5,10,41,-9,-15,6,102,32,22,2,-2,-12,-65,20,3,-15,-15,-47,-69,80,-20,-127,62,-1,-45,-55,-11,-24,12,0,-12,48,3,-4,-11,38,127,-5, -127,-117,-20,127,-69,63,-110,127,36,17,31,-1,48,19,-9,-42,-32,114,29,2,-1,127,14,127,127,-29,-57,32,75,-109,-16,-92,79,-6,-35,-125,24,14,-52,-41,-110,5,-95,-127,26,31,47,127, -2,-15,13,11,-24,23,28,53,-1,-32,-2,8,-25,-6,-7,0,-63,90,-58,-36,-4,-22,127,18,-54,2,5,0,31,39,16,9,0,-17,-45,80,7,10,13,70,27,-16,19,-45,-12,22,-31,-8, 
  /* [0][1][][] */ -16,-8,-24,2,25,-87,114,-59,-9,14,8,31,127,13,6,-27,-8,-71,27,54,72,-61,39,16,-56,127,-81,-32,127,-92,45,-105,-37,11,-83,19,7,-58,-43,13,127,127,6,-125,-57,-64,-2,98, 97,-127,127,-2,127,77,-83,-38,66,127,127,-127,-97,127,127,127,127,127,121,127,127,123,1,6,124,-102,-127,127,39,127,127,-2,-127,127,127,127,-127,127,-127,-115,53,41,-127,-53,127,-127,-25,85, 41,28,-36,-2,-48,127,-127,90,116,-81,13,60,-41,6,13,-61,16,-3,-127,18,21,-112,-30,0,76,-15,-24,127,-75,-32,50,-51,-27,15,93,-27,37,1,-9,-90,113,5,26,19,-57,75,81,-80, 
  /* [0][2][][] */ -9,29,10,-30,-1,-54,-29,10,-8,2,-29,-4,-21,-24,9,3,-34,-30,3,-26,2,-8,83,-3,-99,3,31,-15,7,-9,-14,44,-14,0,-62,46,-2,-17,5,62,-22,-1,4,-10,-15,8,-19,23, 37,-11,-31,-35,29,29,109,-76,127,-25,-33,-5,-81,-37,-8,-65,-4,70,-2,33,12,40,-19,-21,-66,54,66,4,-109,8,-51,-15,-27,3,-37,9,54,-29,-16,127,-106,1,-19,36,33,38,3,-111, 4,36,7,-19,-8,-1,-12,-44,-44,-26,-40,-3,14,-25,-3,17,59,10,-37,-12,-13,-7,-40,-6,30,-31,16,-17,-28,-2,-13,2,30,-15,-22,-62,-9,-2,14,-3,-7,-6,4,-1,-17,8,60,-41, 
};
const TfArray<4, int> tensor_dimension16 = { 4, { 1,3,3,48 } };
const TfArray<48, float> quant16_scale = { 48, { 0.014544953592121601, 0.007364185992628336, 0.031733456999063492, 0.013955621980130672, 0.012191555462777615, 0.018383555114269257, 0.0084932064637541771, 0.014940425753593445, 0.0033385988790541887, 0.014224729500710964, 0.011527953669428825, 0.11741326749324799, 0.02431759424507618, 0.044367522001266479, 0.019933365285396576, 0.037466488778591156, 0.0059522148221731186, 0.0024500000290572643, 0.012106402777135372, 0.013663710094988346, 0.011312582530081272, 0.01041247695684433, 0.0031635200139135122, 0.022885669022798538, 0.0094297053292393684, 0.024213735014200211, 0.020872795954346657, 0.0098470104858279228, 0.012860190123319626, 0.022787613794207573, 0.0061462167650461197, 0.0040805689059197903, 0.007471973542124033, 0.0082699097692966461, 0.0070962882600724697, 0.015050624497234821, 0.15555337071418762, 0.018013292923569679, 0.0058673867024481297, 0.0097667397931218147, 0.008130442351102829, 0.0068188747391104698, 0.011802114546298981, 0.007561899721622467, 0.020127860829234123, 0.0053803399205207825, 0.0025520846247673035, 0.0093719819560647011, } };
const TfArray<48, int> quant16_zero = { 48, { 0,0,0,0,0,0,0,0,0,0,0,0,0,0,0,0,0,0,0,0,0,0,0,0,0,0,0,0,0,0,0,0,0,0,0,0,0,0,0,0,0,0,0,0,0,0,0,0 } };
const TfLiteAffineQuantization quant16 = { (TfLiteFloatArray*)&quant16_scale, (TfLiteIntArray*)&quant16_zero, 3 };
const ALIGN(16) int32_t tensor_data17[48] = { -678, 10581, -1666, -1136, 1019, -771, 5266, -5153, -3741, 24, -3252, 24, 1445, -406, -2760, 2952, 8588, 5596, 68, -4487, -6765, -2429, 20479, -6677, -3521, -239, 7974, -5773, 290, -413, -7350, 9574, 3662, -233, 2878, -298, 12, -370, 11818, -855, 3795, -4197, 4854, 10216, -850, 8216, 2439, -2677, };
const TfArray<1, int> tensor_dimension17 = { 1, { 48 } };
const TfArray<48, float> quant17_scale = { 48, { 0.00034223421243950725, 0.00017327496607322246, 0.00074666959699243307, 0.00032836757600307465, 0.00028686012956313789, 0.00043255425407551229, 0.00019984015671070665, 0.00035153943463228643, 7.8555269283242524e-05, 0.00033469952177256346, 0.00027124598273076117, 0.0027626652736216784, 0.00057217868743464351, 0.0010439417092129588, 0.00046902036410756409, 0.00088156445417553186, 0.00014005211414769292, 5.7647059293230996e-05, 0.00028485653456300497, 0.00032149907201528549, 0.0002661784237716347, 0.00024499944993294775, 7.4435767601244152e-05, 0.00053848634706810117, 0.00022187542344909161, 0.0005697349552065134, 0.00049112463602796197, 0.00023169437190517783, 0.00030259272898547351, 0.00053617917001247406, 0.00014461686077993363, 9.6013391157612205e-05, 0.00017581114661879838, 0.00019458611495792866, 0.00016697149840183556, 0.00035413235309533775, 0.0036600793246179819, 0.0004238421970512718, 0.00013805615890305489, 0.00022980564972385764, 0.00019130452710669488, 0.00016044412041082978, 0.00027769681764766574, 0.00017792705330066383, 0.00047359673772007227, 0.00012659623462241143, 6.0049049352528527e-05, 0.00022051722044125199, } };
const TfArray<48, int> quant17_zero = { 48, { 0,0,0,0,0,0,0,0,0,0,0,0,0,0,0,0,0,0,0,0,0,0,0,0,0,0,0,0,0,0,0,0,0,0,0,0,0,0,0,0,0,0,0,0,0,0,0,0 } };
const TfLiteAffineQuantization quant17 = { (TfLiteFloatArray*)&quant17_scale, (TfLiteIntArray*)&quant17_zero, 0 };
const ALIGN(16) int8_t tensor_data18[8*1*1*48] = { 
  /* [0][0][][] */ -43,-43,-25,-72,0,-21,78,76,-92,-86,-37,12,-62,-4,-66,42,-88,15,9,127,53,-15,6,82,68,79,23,0,-100,-48,-82,-58,-64,104,26,-46,33,-33,98,-4,35,-5,-1,-99,27,-22,-24,-89, 
  /* [1][0][][] */ -11,61,-18,-29,-65,45,-11,-41,-23,67,-13,28,59,35,-58,12,-29,-112,75,-60,127,13,-65,26,56,-12,-77,65,33,-13,73,31,-19,-12,3,-18,-6,114,-9,-30,62,32,-19,16,96,19,-31,59, 
  /* [2][0][][] */ -24,-31,116,17,95,-45,-5,28,-31,-5,-12,52,13,-43,-57,-127,-57,-112,-23,11,-102,22,-43,-39,-58,9,-1,-49,-49,4,-34,-14,-4,-3,24,-9,15,-33,-48,9,41,-34,21,-51,-51,-37,-61,-63, 
  /* [3][0][][] */ 47,16,61,6,13,-36,34,66,-43,-34,52,1,-62,52,-22,62,58,32,-35,22,-106,-58,120,-6,-1,8,-34,-35,-52,57,127,-49,23,-106,-19,39,-4,-81,-2,63,-89,-71,65,14,-97,-69,55,-4, 
  /* [4][0][][] */ 18,-15,75,-35,6,-10,-5,-1,-55,-6,-18,14,49,-76,36,-92,39,47,-11,-35,9,35,15,2,1,9,60,-20,37,25,-127,-16,-21,-21,10,16,51,-5,42,0,-44,-15,-73,28,-22,-95,4,18, 
  /* [5][0][][] */ 31,-53,52,30,28,32,32,1,-79,-12,-42,42,31,13,18,-39,91,70,4,-16,89,-60,127,-82,-13,44,18,42,11,12,-21,-39,-21,-49,-32,27,39,18,65,11,-76,31,35,31,57,-18,74,-1, 
  /* [6][0][][] */ -50,45,-127,90,39,32,45,18,-25,-14,70,-78,-97,-17,-26,22,-106,16,-17,91,12,38,-73,-80,4,-25,44,59,-31,-41,-29,10,41,69,-47,-13,-9,-26,72,6,54,56,-113,-48,-39,112,-55,-37, 
  /* [7][0][][] */ 36,77,-83,13,20,58,126,68,42,89,-107,-27,-47,-1,-63,-59,29,35,127,108,79,-7,118,28,120,101,-67,92,-73,27,-16,-80,27,-75,-15,18,-8,106,-66,97,-66,54,-15,-91,75,-22,51,-37, 
};
const TfArray<4, int> tensor_dimension18 = { 4, { 8,1,1,48 } };
const TfArray<8, float> quant18_scale = { 8, { 0.003191652474924922, 0.0035611127968877554, 0.0053755324333906174, 0.0051008895970880985, 0.0058203772641718388, 0.0065075140446424484, 0.0033339634537696838, 0.0034987654071301222, } };
const TfArray<8, int> quant18_zero = { 8, { 0,0,0,0,0,0,0,0 } };
const TfLiteAffineQuantization quant18 = { (TfLiteFloatArray*)&quant18_scale, (TfLiteIntArray*)&quant18_zero, 0 };
const ALIGN(16) int32_t tensor_data19[8] = { 3059, 831, 23126, -5072, 4405, -15747, 2345, -11574, };
const TfArray<1, int> tensor_dimension19 = { 1, { 8 } };
const TfArray<8, float> quant19_scale = { 8, { 7.5097705121152103e-05, 8.3790888311341405e-05, 0.00012648312258534133, 0.00012002093717455864, 0.0001369500532746315, 0.00015311797324102372, 7.8446202678605914e-05, 8.2323895185254514e-05, } };
const TfArray<8, int> quant19_zero = { 8, { 0,0,0,0,0,0,0,0 } };
const TfLiteAffineQuantization quant19 = { (TfLiteFloatArray*)&quant19_scale, (TfLiteIntArray*)&quant19_zero, 0 };
const ALIGN(16) int8_t tensor_data20[48*1*1*8] = { 
  /* [0][0][][] */ 63,38,127,-35,74,111,-77,-45, 
  /* [1][0][][] */ 7,-73,-127,3,60,19,33,8, 
  /* [2][0][][] */ -127,-1,-58,-38,59,43,-84,-41, 
  /* [3][0][][] */ 26,61,127,-58,2,-99,0,-14, 
  /* [4][0][][] */ -127,20,-49,-21,48,25,-40,-53, 
  /* [5][0][][] */ -91,26,-58,-18,7,29,-82,-127, 
  /* [6][0][][] */ -36,-127,-116,33,93,10,2,35, 
  /* [7][0][][] */ -54,-127,-82,-64,-64,-63,22,77, 
  /* [8][0][][] */ 81,29,-7,-4,95,-66,-127,16, 
  /* [9][0][][] */ -37,53,-55,95,-59,-38,127,-44, 
  /* [10][0][][] */ -29,127,49,70,127,-20,-3,51, 
  /* [11][0][][] */ -80,-28,-25,-13,-85,122,127,-5, 
  /* [12][0][][] */ 72,23,-127,31,-10,-44,-63,-22, 
  /* [13][0][][] */ 59,-22,-67,-14,17,-127,-35,-19, 
  /* [14][0][][] */ 9,-81,98,28,127,-124,-61,11, 
  /* [15][0][][] */ -39,-40,-8,127,68,102,-83,35, 
  /* [16][0][][] */ 114,39,-23,29,86,-111,-127,-39, 
  /* [17][0][][] */ 63,127,56,86,55,68,29,-102, 
  /* [18][0][][] */ 34,-15,5,14,127,-1,31,-15, 
  /* [19][0][][] */ 13,127,43,26,-126,9,28,-42, 
  /* [20][0][][] */ -54,32,72,-127,14,33,-25,108, 
  /* [21][0][][] */ -35,60,30,-127,13,48,2,101, 
  /* [22][0][][] */ -69,-81,-93,25,-100,127,112,-14, 
  /* [23][0][][] */ 110,41,-127,17,14,-73,-80,-32, 
  /* [24][0][][] */ -65,62,16,-9,-14,95,-127,92, 
  /* [25][0][][] */ -105,-64,-127,18,-56,-71,77,92, 
  /* [26][0][][] */ 46,-11,-34,-28,91,-12,127,-43, 
  /* [27][0][][] */ 127,-63,17,88,0,36,-30,108, 
  /* [28][0][][] */ 35,72,38,-5,127,-72,56,-30, 
  /* [29][0][][] */ -11,-15,-12,-41,-64,9,127,-34, 
  /* [30][0][][] */ 38,-127,-35,-76,-112,22,14,-51, 
  /* [31][0][][] */ 6,35,-2,1,-127,-2,-24,-6, 
  /* [32][0][][] */ 50,-62,-61,73,-4,-78,111,-127, 
  /* [33][0][][] */ 46,127,52,32,56,-16,-20,-16, 
  /* [34][0][][] */ -127,-35,123,-6,-20,97,99,13, 
  /* [35][0][][] */ -25,74,127,-15,-61,-66,-33,18, 
  /* [36][0][][] */ -93,16,98,-20,-23,127,66,18, 
  /* [37][0][][] */ -21,-95,-6,-127,-43,-83,84,44, 
  /* [38][0][][] */ 50,-14,80,-52,65,62,-127,12, 
  /* [39][0][][] */ -31,118,-127,-41,-1,3,-1,100, 
  /* [40][0][][] */ 71,-59,20,35,17,7,10,127, 
  /* [41][0][][] */ -11,91,127,10,6,91,-58,13, 
  /* [42][0][][] */ 59,-113,-115,-27,-127,24,16,-91, 
  /* [43][0][][] */ -8,-78,36,-55,127,-34,22,37, 
  /* [44][0][][] */ -3,127,124,8,9,42,-54,13, 
  /* [45][0][][] */ -32,49,9,75,-127,69,-125,26, 
  /* [46][0][][] */ -40,-36,65,51,-111,-127,-42,0, 
  /* [47][0][][] */ -13,51,32,-112,-127,40,-13,67, 
};
const TfArray<4, int> tensor_dimension20 = { 4, { 48,1,1,8 } };
const TfArray<48, float> quant20_scale = { 48, { 0.0023830828722566366, 0.0035075503401458263, 0.003072007792070508, 0.0031504409853368998, 0.0023325509391725063, 0.0023747067898511887, 0.0023166020400822163, 0.0018525342456996441, 0.0030936396215111017, 0.0039327726699411869, 0.0019325523171573877, 0.002121838042512536, 0.0034603681415319443, 0.0035055275075137615, 0.0027621709741652012, 0.0018309715669602156, 0.0025784575846046209, 0.0021516226697713137, 0.0019463247153908014, 0.0034644808620214462, 0.002690720371901989, 0.0027158195152878761, 0.0025365045294165611, 0.0019261555280536413, 0.0021009505726397038, 0.0025706130545586348, 0.0035579621326178312, 0.0032916620839387178, 0.0012099002487957478, 0.0032874238677322865, 0.0020343952346593142, 0.0018569580279290676, 0.002135485177859664, 0.0019758858252316713, 0.0029343299102038145, 0.0029852455481886864, 0.0027143498882651329, 0.0024269099812954664, 0.0029216262046247721, 0.0020769550465047359, 0.0033048822078853846, 0.0010450204135850072, 0.0015106457285583019, 0.0033661115448921919, 0.0011816531186923385, 0.0029310311656445265, 0.0022313513327389956, 0.0024021000135689974, } };
const TfArray<48, int> quant20_zero = { 48, { 0,0,0,0,0,0,0,0,0,0,0,0,0,0,0,0,0,0,0,0,0,0,0,0,0,0,0,0,0,0,0,0,0,0,0,0,0,0,0,0,0,0,0,0,0,0,0,0 } };
const TfLiteAffineQuantization quant20 = { (TfLiteFloatArray*)&quant20_scale, (TfLiteIntArray*)&quant20_zero, 0 };
const ALIGN(16) int32_t tensor_data21[48] = { 1896, -1067, 587, -1396, 3502, -946, 3214, -2730, 885, 392, 2330, 3461, 593, -239, 802, 4184, -1581, 3771, 4497, 563, -1160, 2020, -479, 4238, 2170, 1520, 901, -853, 8144, -317, 2136, -1936, -592, 4137, -536, 1940, 1680, 962, 141, 3685, 1622, 9464, -3559, 1272, 8082, -111, 3008, 2630, };
const TfArray<1, int> tensor_dimension21 = { 1, { 48 } };
const TfArray<48, float> quant21_scale = { 48, { 0.00023072116891853511, 0.00033958788844756782, 0.00029742030892521143, 0.00030501390574499965, 0.00022582884412258863, 0.00022991021978668869, 0.00022428474039770663, 0.00017935542564373463, 0.00029951462056487799, 0.00038075633347034454, 0.00018710248696152121, 0.00020542841230053455, 0.00033501989673823118, 0.00033939204877242446, 0.00026742304908111691, 0.00017726780788507313, 0.00024963662144728005, 0.00020831204892601818, 0.00018843587895389646, 0.00033541806624270976, 0.00026050547603517771, 0.00026293547125533223, 0.00024557486176490784, 0.00018648317200131714, 0.00020340617629699409, 0.00024887712788768113, 0.00034446857171133161, 0.00031868639052845538, 0.0001171380135929212, 0.00031827608472667634, 0.00019696253002621233, 0.00017978373216465116, 0.00020674968254752457, 0.00019129786232952029, 0.00028409084188751876, 0.00028902030317112803, 0.00026279318262822926, 0.00023496433277614415, 0.0002828609140124172, 0.00020108300668653101, 0.00031996631878428161, 0.00010117496276507154, 0.00014625507174059749, 0.00032589433249086142, 0.00011440322850830853, 0.00028377145645208657, 0.00021603108325507492, 0.000232562335440889, } };
const TfArray<48, int> quant21_zero = { 48, { 0,0,0,0,0,0,0,0,0,0,0,0,0,0,0,0,0,0,0,0,0,0,0,0,0,0,0,0,0,0,0,0,0,0,0,0,0,0,0,0,0,0,0,0,0,0,0,0 } };
const TfLiteAffineQuantization quant21 = { (TfLiteFloatArray*)&quant21_scale, (TfLiteIntArray*)&quant21_zero, 0 };
const ALIGN(16) int8_t tensor_data22[1*3*3*48] = { 
  /* [0][0][][] */ -84,113,-127,94,-58,83,-51,112,-54,-87,71,-59,62,-47,-55,-54,79,75,99,-127,94,-93,50,-95,-66,-51,91,91,-97,-56,-89,127,66,-100,76,-127,-83,-127,86,-30,-3,-81,61,-123,87,61,-48,-82, -86,114,-71,106,-81,127,-22,107,-116,-106,112,-81,83,-69,-64,-86,98,112,127,-111,127,-127,68,-127,-113,-79,110,111,37,-72,-79,101,79,-127,92,-112,-106,-126,115,-66,-93,87,93,-127,-40,87,-74,-72, -74,64,-3,19,-19,62,-33,54,-67,-46,48,-31,23,-6,-36,-32,49,53,75,-45,47,-59,17,-24,-75,-23,65,26,127,-33,-42,107,33,-79,42,-15,-54,-45,52,-66,-123,-42,40,-25,-64,67,-38,-80, 
  /* [0][1][][] */ -113,91,-75,127,-60,114,-124,127,-99,-96,80,-96,100,-127,-108,-107,92,97,-31,-103,105,-67,103,-84,-99,-84,120,102,-121,-84,-127,105,97,32,92,-114,-86,-118,117,-71,-78,-99,97,-114,127,96,-69,-124, -127,127,-101,120,-127,120,-127,124,-127,-127,127,-127,127,-117,-127,-127,127,127,-50,-89,122,-101,127,-100,-127,-127,127,127,22,-127,-122,96,127,38,127,-86,-127,-95,127,-127,-127,127,127,-95,-54,127,-127,-127, -79,71,-63,40,-37,50,-88,41,-53,-37,64,-62,55,-53,-81,-27,79,59,-36,-43,39,-51,73,-58,-112,-27,69,43,105,-52,-30,94,31,10,74,-41,-49,-17,69,-78,-62,-82,41,-40,-94,101,-36,-79, 
  /* [0][2][][] */ -67,85,-24,66,-46,78,-117,76,-56,-57,36,-54,63,-66,-68,-85,46,36,-76,-11,40,-18,47,-29,-77,-59,84,23,-95,-32,-48,43,47,52,64,-93,-33,-56,48,-50,-107,-30,59,-57,104,67,-48,-56, -77,78,-101,72,-59,68,-117,67,-58,-27,54,-66,65,-112,-79,-60,55,52,-112,-3,14,-23,47,-32,-114,-80,74,56,-16,-72,-45,34,45,60,82,-83,-29,-57,52,-54,-64,105,75,-95,-11,102,-69,-66, -40,68,-79,31,-11,32,-89,72,-23,2,27,-21,46,-57,-65,-21,38,22,-84,2,1,-7,24,-13,-77,-34,50,50,65,2,12,40,9,43,53,-61,-6,-5,35,-45,-7,-12,7,-18,-57,81,-26,-30, 
};
const TfArray<4, int> tensor_dimension22 = { 4, { 1,3,3,48 } };
const TfArray<48, float> quant22_scale = { 48, { 0.0025192000903189182, 0.0038823888171464205, 0.0021484286990016699, 0.0031188309658318758, 0.0046454258263111115, 0.0031477976590394974, 0.0020907970611006021, 0.0071814171969890594, 0.0034990615677088499, 0.0021470573265105486, 0.0019262714777141809, 0.0032371894922107458, 0.0029639364220201969, 0.0048525691963732243, 0.0015292096650227904, 0.0024902818258851767, 0.0030871087219566107, 0.0022786576300859451, 0.0052037257701158524, 0.0017536211526021361, 0.0028596308548003435, 0.002698815893381834, 0.003265702398493886, 0.004587952047586441, 0.0020425659604370594, 0.0027569874655455351, 0.0021917193662375212, 0.0017934079514816403, 0.010375791229307652, 0.0033295273315161467, 0.0033465013839304447, 0.0090159093961119652, 0.0061955461278557777, 0.0079235108569264412, 0.0020055859349668026, 0.0028540103230625391, 0.0031189718283712864, 0.0022838481236249208, 0.0025553877931088209, 0.0030454224906861782, 0.0021319123916327953, 0.010079419240355492, 0.0205355454236269, 0.0027167208027094603, 0.0090227983891963959, 0.0017574361991137266, 0.0027009462937712669, 0.0022898938041180372, } };
const TfArray<48, int> quant22_zero = { 48, { 0,0,0,0,0,0,0,0,0,0,0,0,0,0,0,0,0,0,0,0,0,0,0,0,0,0,0,0,0,0,0,0,0,0,0,0,0,0,0,0,0,0,0,0,0,0,0,0 } };
const TfLiteAffineQuantization quant22 = { (TfLiteFloatArray*)&quant22_scale, (TfLiteIntArray*)&quant22_zero, 3 };
const ALIGN(16) int32_t tensor_data23[48] = { 12539, 873, 20566, 2111, 12557, -129, 43533, 584, 8141, 39832, 9320, 26112, 22, 12876, 47311, 28969, 3397, 4558, 3077, 51325, 1370, 15678, 3705, 15899, 16828, 35964, -466, -110, -2999, 14967, 19057, 512, -644, 781, 4790, 17439, 8205, 32911, 7343, 15281, 27792, -93, 561, 13202, -272, 7446, 33821, 26894, };
const TfArray<1, int> tensor_dimension23 = { 1, { 48 } };
const TfArray<48, float> quant23_scale = { 48, { 5.9275298553984612e-05, 9.1350324510131031e-05, 5.0551265303511173e-05, 7.3384260758757591e-05, 0.0001093041428248398, 7.4065828812308609e-05, 4.9195226893061772e-05, 0.00016897452587727457, 8.2330865552648902e-05, 5.0518996431492269e-05, 4.5324035454541445e-05, 7.6169162639416754e-05, 6.9739682658109814e-05, 0.00011417810310376808, 3.5981403925688937e-05, 5.8594869187800214e-05, 7.2637856646906585e-05, 5.3615473007084802e-05, 0.00012244061508681625, 4.1261675505666062e-05, 6.7285436671227217e-05, 6.3501553086098284e-05, 7.6840056863147765e-05, 0.00010795181151479483, 4.8060377594083548e-05, 6.4870291680563241e-05, 5.1569870265666395e-05, 4.2197836592094973e-05, 0.00024413627397734672, 7.8341821790672839e-05, 7.8741213656030595e-05, 0.00021213904256001115, 0.00014577756519429386, 0.00018643555813468993, 4.7190256736939773e-05, 6.7153188865631819e-05, 7.3387571319472045e-05, 5.3737603593617678e-05, 6.0126771131763235e-05, 7.1656999352853745e-05, 5.0162645493401214e-05, 0.00023716280702501535, 0.00048318930203095078, 6.3922845583874732e-05, 0.00021230113634373993, 4.1351438994752243e-05, 6.3551677158102393e-05, 5.3879855840932578e-05, } };
const TfArray<48, int> quant23_zero = { 48, { 0,0,0,0,0,0,0,0,0,0,0,0,0,0,0,0,0,0,0,0,0,0,0,0,0,0,0,0,0,0,0,0,0,0,0,0,0,0,0,0,0,0,0,0,0,0,0,0 } };
const TfLiteAffineQuantization quant23 = { (TfLiteFloatArray*)&quant23_scale, (TfLiteIntArray*)&quant23_zero, 0 };
const ALIGN(16) int8_t tensor_data24[16*1*1*48] = { 
  /* [0][0][][] */ 45,38,27,-35,72,57,-47,66,-6,102,1,46,-37,42,-13,48,30,81,41,-65,-74,82,-4,51,64,32,33,53,-34,-43,-10,80,-20,1,-83,63,59,-127,-42,20,7,-36,57,-7,-16,-64,-75,-21, 
  /* [1][0][][] */ -51,1,-74,-42,11,87,-53,16,-7,-35,-45,41,54,-10,-25,-18,-37,-27,-8,14,-61,49,-104,-43,-48,-33,50,61,-27,-26,34,-39,17,-61,-30,40,10,-60,127,-26,-13,27,-46,-8,36,47,32,20, 
  /* [2][0][][] */ 13,0,61,-39,-18,-82,12,28,102,76,-61,14,114,-55,127,81,-66,-25,-29,19,90,-79,-35,-103,22,-39,32,-59,41,47,-41,22,33,-31,51,48,-61,14,9,-33,27,35,50,-17,19,-74,86,-57, 
  /* [3][0][][] */ 33,12,-28,-18,29,108,14,-24,35,-47,30,-23,-43,-4,0,37,-25,-63,35,-127,-17,-15,-25,-29,-42,88,126,62,-14,-42,37,39,51,-25,84,52,-50,-54,1,29,14,20,-22,-12,23,24,-8,-23, 
  /* [4][0][][] */ 100,-6,5,-51,84,83,52,-2,62,-6,-104,24,53,-34,15,-11,-76,-125,-29,-94,-26,23,-46,-48,-72,127,-97,119,-57,-50,29,79,24,-34,2,-26,-2,20,-28,19,-50,-13,-7,43,-47,103,-32,-60, 
  /* [5][0][][] */ -3,2,-55,12,-16,61,26,-37,64,62,35,101,54,-23,34,0,-46,127,-9,44,8,1,-71,-22,33,6,-72,-45,-25,37,15,-27,-43,-1,37,17,-49,13,-94,4,92,-22,32,53,-17,1,-41,35, 
  /* [6][0][][] */ 44,12,15,82,-3,-34,111,-65,-4,62,127,88,25,56,-51,40,34,-22,-67,80,47,-66,-44,57,-101,107,84,-5,113,52,-25,-10,85,-62,-106,-15,83,45,3,3,15,61,58,-34,61,119,34,-9, 
  /* [7][0][][] */ -85,-10,-27,18,-56,-51,25,41,71,108,-41,-72,-86,10,-22,-19,-61,97,6,119,-41,26,20,30,-28,-86,-26,-70,25,37,6,8,-31,11,13,-26,-5,-49,127,-6,-2,44,15,-12,59,70,-11,4, 
  /* [8][0][][] */ -14,-100,48,-71,56,-56,73,-42,-35,-120,26,0,-25,-12,33,25,8,3,-44,108,4,42,-17,26,63,-9,-78,-33,-127,-21,-57,-120,-3,-63,2,106,8,40,111,13,10,-4,75,117,-13,-70,-54,77, 
  /* [9][0][][] */ 17,-28,23,-60,39,69,-46,42,18,-23,-37,-20,13,-51,113,-19,16,-120,42,40,-80,30,52,-52,-25,-71,-22,81,66,72,-39,-14,-53,26,-21,127,-40,-47,-49,-35,-35,6,37,100,59,91,-64,18, 
  /* [10][0][][] */ -17,25,-33,-15,21,33,-69,-37,43,32,66,-14,-29,-10,48,-53,-56,127,6,48,8,-13,25,34,-54,41,7,100,39,2,-37,2,68,15,-4,28,-8,-46,-32,16,-85,5,29,-13,20,49,36,37, 
  /* [11][0][][] */ -31,60,-24,39,31,62,-5,14,11,21,-127,-81,78,11,-12,-52,11,24,-39,-59,-1,-13,110,-4,51,8,-17,43,-5,26,-6,57,21,-7,-56,19,45,81,110,9,21,-29,53,-9,-51,-12,87,-5, 
  /* [12][0][][] */ -74,9,31,24,-65,-55,2,-3,-46,-28,-127,18,61,-95,15,23,45,97,83,-107,-39,44,-38,-80,-9,-7,33,-34,11,21,-20,57,62,89,35,-20,-51,-20,25,5,-38,12,63,-10,31,-22,-38,-34, 
  /* [13][0][][] */ -59,-99,-44,-91,13,25,56,11,-106,34,114,-58,34,68,122,4,106,23,-9,-85,66,-86,127,4,-87,12,-17,13,-36,-112,-110,1,42,-33,-68,47,11,-62,83,-80,-7,55,83,38,62,-30,117,-71, 
  /* [14][0][][] */ 62,17,-55,10,-40,19,-92,-35,-29,73,61,43,-19,-56,13,-49,50,-113,21,-3,95,-66,22,-8,-14,127,-88,3,-51,-30,-89,13,121,41,85,-32,-87,8,-16,46,-21,-44,108,-19,-59,-36,-50,47, 
  /* [15][0][][] */ -68,15,29,23,90,1,-3,34,17,73,-8,69,57,-11,-46,-25,11,41,5,-37,21,-43,-50,-58,32,-72,-36,58,-22,13,21,9,-60,2,127,-24,-99,18,56,-24,-46,-19,30,-9,-41,-31,-10,14, 
};
const TfArray<4, int> tensor_dimension24 = { 4, { 16,1,1,48 } };
const TfArray<16, float> quant24_scale = { 16, { 0.0057354243472218513, 0.0066355578601360321, 0.0054164794273674488, 0.0059301885776221752, 0.0042927139438688755, 0.0059442655183374882, 0.0039449427276849747, 0.0065882755443453789, 0.0034993740264326334, 0.0039255772717297077, 0.0068435287103056908, 0.0078235315158963203, 0.0054732915014028549, 0.0034048974048346281, 0.006764883641153574, 0.0062376530840992928, } };
const TfArray<16, int> quant24_zero = { 16, { 0,0,0,0,0,0,0,0,0,0,0,0,0,0,0,0 } };
const TfLiteAffineQuantization quant24 = { (TfLiteFloatArray*)&quant24_scale, (TfLiteIntArray*)&quant24_zero, 0 };
const ALIGN(16) int32_t tensor_data25[16] = { -1544, 9980, -18312, 5101, 14329, -16809, -41678, -10860, -4549, 9005, -15393, -11061, 6122, -12290, -2931, -1243, };
const TfArray<1, int> tensor_dimension25 = { 1, { 16 } };
const TfArray<16, float> quant25_scale = { 16, { 0.00013495115854311734, 0.00015613077266607434, 0.00012744657578878105, 0.00013953384768683463, 0.00010100503277499229, 0.00013986507838126272, 9.2822185251861811e-05, 0.00015501824964303523, 8.2338214269839227e-05, 9.2366528406273574e-05, 0.00016102420340757817, 0.00018408309551887214, 0.00012878332927357405, 8.011523459572345e-05, 0.00015917373821139336, 0.00014676831779070199, } };
const TfArray<16, int> quant25_zero = { 16, { 0,0,0,0,0,0,0,0,0,0,0,0,0,0,0,0 } };
const TfLiteAffineQuantization quant25 = { (TfLiteFloatArray*)&quant25_scale, (TfLiteIntArray*)&quant25_zero, 0 };
const ALIGN(16) int8_t tensor_data26[96*1*1*16] = { 
  /* [0][0][][] */ 67,30,5,100,-127,-36,94,58,60,118,-6,79,11,-19,31,84, 
  /* [1][0][][] */ -30,22,-94,0,127,111,11,26,-47,12,-80,39,-69,121,-67,-38, 
  /* [2][0][][] */ -41,57,79,-15,64,88,3,43,36,-6,32,-14,45,-127,-9,11, 
  /* [3][0][][] */ 127,-31,13,13,34,38,-6,14,22,29,-76,-43,-35,44,-65,52, 
  /* [4][0][][] */ -76,14,-8,-10,-124,6,-59,-57,-33,37,-15,-68,-22,14,-22,127, 
  /* [5][0][][] */ -107,47,41,35,127,9,24,17,-60,24,-24,41,-43,57,-49,-14, 
  /* [6][0][][] */ -127,31,-49,36,-15,-62,77,10,13,-41,-47,23,8,2,-52,20, 
  /* [7][0][][] */ -13,67,39,-59,67,20,127,39,11,17,7,42,119,44,-25,8, 
  /* [8][0][][] */ 0,-36,-75,63,-64,72,-63,-75,61,-20,98,65,127,36,-118,-19, 
  /* [9][0][][] */ -33,-127,-40,120,-43,-85,2,102,32,62,39,88,-106,26,6,-25, 
  /* [10][0][][] */ -27,-46,-56,28,-127,75,57,-31,64,-69,52,-61,22,104,-54,40, 
  /* [11][0][][] */ -33,-110,-43,36,35,103,15,-4,-8,51,33,-80,20,103,-127,99, 
  /* [12][0][][] */ -40,-83,-91,127,-108,-120,37,94,71,38,-20,78,-26,-53,-26,10, 
  /* [13][0][][] */ -48,-26,-19,-2,-2,-1,28,21,-4,127,7,-1,52,34,25,-23, 
  /* [14][0][][] */ -127,-21,-42,-41,-42,84,-38,-117,116,-73,84,-24,50,-78,-75,-79, 
  /* [15][0][][] */ -1,-127,84,-54,-56,-33,-3,51,25,-47,-80,-37,63,-41,-19,-44, 
  /* [16][0][][] */ -16,-25,29,-33,35,20,-26,-35,72,-127,40,-23,-1,-10,-84,-103, 
  /* [17][0][][] */ -15,22,30,-76,23,-15,-29,20,95,-71,39,91,127,-88,-19,-109, 
  /* [18][0][][] */ 45,20,-46,-127,2,-15,115,-49,22,36,-19,62,3,57,-12,-89, 
  /* [19][0][][] */ -66,-50,-4,-62,-83,68,-37,16,64,-46,28,-127,-28,-21,-45,-6, 
  /* [20][0][][] */ 18,101,92,-106,68,-8,-57,76,-104,-127,37,-87,-54,85,-17,-5, 
  /* [21][0][][] */ 18,-51,-117,19,40,-7,80,87,-69,-91,2,-3,91,-127,-28,-7, 
  /* [22][0][][] */ 46,-4,92,-6,20,3,68,25,1,127,12,15,9,1,88,-16, 
  /* [23][0][][] */ -127,-73,-35,57,46,41,20,2,-27,18,-26,-126,5,7,71,88, 
  /* [24][0][][] */ 17,-11,21,43,10,-96,-4,-58,8,127,-107,73,-33,-59,73,-57, 
  /* [25][0][][] */ 86,-69,75,125,51,-14,-15,53,-127,66,58,-56,-41,25,81,-2, 
  /* [26][0][][] */ -26,16,6,44,-51,123,-12,33,-61,-41,-81,28,9,23,43,-127, 
  /* [27][0][][] */ 44,-1,2,-51,-51,-5,-96,5,-89,-17,-68,-46,-88,52,-25,127, 
  /* [28][0][][] */ -60,31,12,-9,4,-5,-127,-27,-6,-50,-21,-39,37,-73,-60,-29, 
  /* [29][0][][] */ -43,-119,-41,83,-39,5,127,-4,64,54,-118,51,8,-26,-47,91, 
  /* [30][0][][] */ 46,-28,-44,-9,-127,28,48,-44,50,17,-9,-38,-2,7,-16,43, 
  /* [31][0][][] */ -127,-3,-2,82,-46,3,-45,-23,-52,-57,-22,-65,-14,-51,-51,90, 
  /* [32][0][][] */ -127,-75,-94,-11,-77,-37,0,-34,119,70,-83,-61,51,58,37,-14, 
  /* [33][0][][] */ -15,-9,-114,64,-127,-96,49,18,-116,5,-42,-70,-40,108,55,73, 
  /* [34][0][][] */ 35,28,6,70,-47,-50,36,4,1,-127,-14,61,-15,26,41,94, 
  /* [35][0][][] */ 22,51,-93,-47,-127,20,96,-67,39,67,-11,-16,7,63,53,87, 
  /* [36][0][][] */ -22,-9,-82,19,127,29,66,83,-63,1,-73,-97,28,-33,-37,17, 
  /* [37][0][][] */ -124,27,-27,-65,44,-82,-37,-72,-19,-43,-39,53,89,-90,-6,-127, 
  /* [38][0][][] */ 45,103,37,-12,-109,-88,-127,-63,-62,-77,60,62,-66,-95,109,-17, 
  /* [39][0][][] */ 4,-52,-12,75,-18,47,62,-16,-37,25,35,-20,-20,127,25,97, 
  /* [40][0][][] */ 89,27,61,70,-66,-62,-21,12,-112,59,-20,-16,-75,-29,127,17, 
  /* [41][0][][] */ -19,-6,11,48,-103,107,8,44,-57,20,-106,-4,29,0,55,-127, 
  /* [42][0][][] */ 3,-106,37,-11,127,19,32,9,-14,-69,-89,-24,-37,-13,14,26, 
  /* [43][0][][] */ -56,-101,-22,29,115,-2,-22,127,-77,-56,-118,-77,78,5,-46,54, 
  /* [44][0][][] */ -38,-62,-72,-76,23,64,50,24,-36,-127,-65,65,-52,30,67,93, 
  /* [45][0][][] */ -23,-45,-65,-20,-127,64,-25,-69,18,-36,20,-38,-13,15,-6,46, 
  /* [46][0][][] */ 24,-90,-18,-13,100,-93,-25,91,-19,-14,32,56,-81,-75,64,-127, 
  /* [47][0][][] */ -87,-28,-42,111,-32,-1,45,24,-16,86,76,91,-23,75,36,127, 
  /* [48][0][][] */ 27,-17,-91,-101,42,-66,10,61,42,-81,-4,16,-68,17,-53,-127, 
  /* [49][0][][] */ 30,77,27,38,-25,-22,60,77,-36,127,-24,36,-29,-54,83,83, 
  /* [50][0][][] */ 5,0,15,11,-127,-30,-22,-52,53,33,23,60,-16,-57,24,-12, 
  /* [51][0][][] */ 12,-13,-9,-127,-54,98,45,-37,5,8,44,-63,63,61,-18,-1, 
  /* [52][0][][] */ 7,-2,-2,-81,87,-100,-2,-42,16,2,127,-37,44,12,-23,101, 
  /* [53][0][][] */ -28,-44,53,-34,-47,-127,17,-93,-9,99,-77,70,-43,-40,26,-85, 
  /* [54][0][][] */ 45,62,25,-2,-127,-53,-60,-78,-30,-1,57,59,-66,-36,60,30, 
  /* [55][0][][] */ 4,17,-36,65,-32,22,53,-26,-8,127,11,46,-2,12,-4,56, 
  /* [56][0][][] */ 85,-108,-125,62,-118,77,3,46,123,43,109,80,-26,-54,75,127, 
  /* [57][0][][] */ 41,40,76,-127,78,-1,-1,-60,40,-22,6,105,37,-85,120,-43, 
  /* [58][0][][] */ 98,-36,14,-98,-4,-1,-6,127,60,111,1,91,36,15,72,1, 
  /* [59][0][][] */ -54,45,45,-68,22,-53,10,-11,21,13,-127,-109,-76,-69,53,1, 
  /* [60][0][][] */ 14,-21,37,29,10,-19,7,-64,-3,127,-10,46,-10,-27,-17,-15, 
  /* [61][0][][] */ 78,107,53,-29,-89,-127,-6,-79,-63,-13,-26,38,-47,-38,107,98, 
  /* [62][0][][] */ -37,91,-18,35,-26,127,-42,24,-52,26,-48,33,-8,53,57,-86, 
  /* [63][0][][] */ 19,-3,-37,-127,-5,-16,94,-25,17,-76,-33,9,-27,61,10,-27, 
  /* [64][0][][] */ -27,-7,-3,-2,41,-71,15,83,-127,-22,-66,-44,-34,72,53,53, 
  /* [65][0][][] */ -80,-42,-52,-22,71,103,-15,-91,-127,-99,12,-36,-85,75,-98,55, 
  /* [66][0][][] */ -12,55,-3,32,-39,127,-21,19,-57,20,-39,38,-29,47,47,-79, 
  /* [67][0][][] */ 15,-18,-31,-28,32,-59,59,-93,10,30,6,127,-43,-14,-40,-121, 
  /* [68][0][][] */ 12,-127,-5,54,31,15,32,95,53,52,42,38,-42,31,10,-5, 
  /* [69][0][][] */ 2,57,90,-86,37,-5,-42,101,22,88,42,92,113,-84,66,-127, 
  /* [70][0][][] */ 39,21,46,-19,88,-2,-85,-44,-127,-80,-7,26,-28,64,-110,-11, 
  /* [71][0][][] */ -14,-63,32,-41,82,-33,49,42,-112,87,-127,-59,6,78,-24,62, 
  /* [72][0][][] */ 13,24,48,-4,-55,-36,-99,-73,-26,81,-32,44,25,102,-127,26, 
  /* [73][0][][] */ -16,-29,-34,-35,48,-94,46,-37,52,71,96,-25,23,-17,-84,127, 
  /* [74][0][][] */ 13,17,-24,90,-86,-26,75,16,79,73,32,126,127,12,-48,7, 
  /* [75][0][][] */ -50,64,-45,60,-63,127,-12,45,-53,25,-31,48,-30,79,19,-56, 
  /* [76][0][][] */ -83,86,-63,15,-88,45,-5,6,63,47,-48,-45,47,-88,-127,45, 
  /* [77][0][][] */ 75,70,-127,116,37,49,51,65,22,-12,109,-27,45,37,62,27, 
  /* [78][0][][] */ 2,-39,-2,-64,62,-114,39,-47,32,43,116,-26,17,-9,-24,127, 
  /* [79][0][][] */ -33,68,2,28,-8,-46,-38,3,-127,-6,54,10,104,41,-75,-38, 
  /* [80][0][][] */ -73,32,51,53,78,36,-19,-127,-97,71,-51,-48,-8,-85,40,66, 
  /* [81][0][][] */ 82,84,-36,-3,22,-34,100,95,-125,113,-64,-58,-30,32,99,127, 
  /* [82][0][][] */ 43,80,-21,-42,16,-26,80,-63,34,8,-47,84,127,5,27,-43, 
  /* [83][0][][] */ 6,-30,33,29,-1,17,-41,-91,74,-19,81,10,28,-65,-49,-127, 
  /* [84][0][][] */ -127,-102,-51,-6,-4,70,65,-1,66,77,92,103,45,98,-70,-2, 
  /* [85][0][][] */ 127,3,96,-39,29,-31,-13,119,20,96,-16,17,-85,76,102,10, 
  /* [86][0][][] */ -57,70,-18,6,45,69,7,8,99,56,127,-19,-25,66,-12,-35, 
  /* [87][0][][] */ 7,-64,19,-44,44,-127,26,-35,44,-11,65,-39,44,-37,-40,74, 
  /* [88][0][][] */ -88,83,45,-16,98,-45,3,13,-38,-45,96,-42,31,127,110,-127, 
  /* [89][0][][] */ -32,42,-9,20,-20,127,-18,31,-33,11,-31,28,-10,55,32,-82, 
  /* [90][0][][] */ 68,-65,34,28,127,-4,54,34,-8,-93,-111,-13,4,-16,-64,17, 
  /* [91][0][][] */ -18,53,-25,-32,20,-61,-91,30,-71,16,-112,-109,-127,-59,15,35, 
  /* [92][0][][] */ 45,37,73,31,-127,-94,28,30,-56,27,-11,-25,-30,-72,29,13, 
  /* [93][0][][] */ 12,-127,-95,59,-37,-44,-6,75,83,71,3,31,-16,28,16,-55, 
  /* [94][0][][] */ 84,-1,107,-44,27,-24,-4,45,34,74,5,76,-17,-10,127,1, 
  /* [95][0][][] */ -96,-27,-45,-33,127,6,50,83,-48,-18,-104,-47,-4,38,-37,62, 
};
const TfArray<4, int> tensor_dimension26 = { 4, { 96,1,1,16 } };
const TfArray<96, float> quant26_scale = { 96, { 0.0030669383704662323, 0.0021056719124317169, 0.0034354575909674168, 0.0043068216182291508, 0.0033766438718885183, 0.0014438525540754199, 0.0030355467461049557, 0.0031805848702788353, 0.0014622693415731192, 0.0020334378350526094, 0.0011886602733284235, 0.0027503103483468294, 0.0020737091545015574, 0.0084179500117897987, 0.0022758946288377047, 0.0025151078589260578, 0.0031407137867063284, 0.0024292815942317247, 0.0046268701553344727, 0.0019533087033778429, 0.0059517691843211651, 0.0016331728547811508, 0.0031560449860990047, 0.0034360582940280437, 0.0016986819682642817, 0.0028620683588087559, 0.0042570154182612896, 0.004857535008341074, 0.0018781792605295777, 0.0038967772852629423, 0.0044214925728738308, 0.0027142930775880814, 0.003953233826905489, 0.00096686580218374729, 0.0023450383450835943, 0.002484502037987113, 0.0028015943244099617, 0.0033955355174839497, 0.0023463398683816195, 0.0026147137396037579, 0.00098938215523958206, 0.0038688075728714466, 0.0030387653969228268, 0.0028986891265958548, 0.0023011767771095037, 0.0021135630086064339, 0.0023401293437927961, 0.0011428148718550801, 0.0051875156350433826, 0.0040632081218063831, 0.0050971042364835739, 0.0029648842755705118, 0.0042171650566160679, 0.0022997381165623665, 0.0022972198203206062, 0.004553401842713356, 0.0020717012230306864, 0.00096529844449833035, 0.0031949237454682589, 0.0026412487495690584, 0.0033634097781032324, 0.0014506265288218856, 0.0042355973273515701, 0.0058297081850469112, 0.0012259639333933592, 0.001119343563914299, 0.0056840130127966404, 0.0037529873661696911, 0.0027000259142369032, 0.0017273413250222802, 0.0054210927337408066, 0.0028737790416926146, 0.0030146229546517134, 0.0034058585297316313, 0.0033189312089234591, 0.0025731269270181656, 0.0036813197657465935, 0.0014008716680109501, 0.0038034443277865648, 0.0018430836498737335, 0.0027806179132312536, 0.0028166759293526411, 0.0028970467392355204, 0.0012453449890017509, 0.0028835609555244446, 0.0018195342272520065, 0.0033314181491732597, 0.0049053053371608257, 0.0040637361817061901, 0.0052587855607271194, 0.0038415056187659502, 0.0019881455227732658, 0.0034418080467730761, 0.0032864105887711048, 0.0019042121712118387, 0.0023922172840684652, } };
const TfArray<96, int> quant26_zero = { 96, { 0,0,0,0,0,0,0,0,0,0,0,0,0,0,0,0,0,0,0,0,0,0,0,0,0,0,0,0,0,0,0,0,0,0,0,0,0,0,0,0,0,0,0,0,0,0,0,0,0,0,0,0,0,0,0,0,0,0,0,0,0,0,0,0,0,0,0,0,0,0,0,0,0,0,0,0,0,0,0,0,0,0,0,0,0,0,0,0,0,0,0,0,0,0,0,0 } };
const TfLiteAffineQuantization quant26 = { (TfLiteFloatArray*)&quant26_scale, (TfLiteIntArray*)&quant26_zero, 0 };
const ALIGN(16) int32_t tensor_data27[96] = { 1495, 5798, 616, 1224, 2909, 9563, -108, 1541, 9524, -775, 11380, 2837, 2273, -32, 3572, 723, 2970, 4046, 8, 6456, 461, 7459, -1397, 1218, -6383, 1271, 1748, 847, 7670, 1264, 2010, 2902, 1838, 13159, 2876, 4124, 3236, 1669, 2954, 2614, 15354, 1175, 2137, 1073, 2719, 6127, 4511, 10072, 906, -603, 986, 3480, 1681, -2902, 4609, 399, 2708, 13743, 676, 1462, 2038, 9315, 2111, -204, 11290, 12520, 977, 2430, 3981, 5269, 1302, 1368, -3020, 2807, 1536, 4055, 60, 8463, 2084, 7732, 2527, 1070, 2455, 11025, -19, 5565, 2988, 1399, -616, 1573, 672, 6264, 2208, 1627, 5156, 4109, };
const TfArray<1, int> tensor_dimension27 = { 1, { 96 } };
const TfArray<96, float> quant27_scale = { 96, { 0.00020178478735033423, 0.00013853964628651738, 0.00022603098477702588, 0.00028336112154647708, 0.00022216141223907471, 9.4996197731234133e-05, 0.00019971941947005689, 0.00020926199795212597, 9.6207906608469784e-05, 0.00013378710718825459, 7.8206190664786845e-05, 0.00018095270206686109, 0.0001364367053611204, 0.00055384688312187791, 0.00014973920769989491, 0.00016547790437471122, 0.0002066387387458235, 0.00015983107732608914, 0.00030441826675087214, 0.00012851513747591525, 0.00039158808067440987, 0.00010745225154096261, 0.00020764743385370821, 0.00022607050777878612, 0.00011176233238074929, 0.00018830566841643304, 0.0002800842048600316, 0.00031959451735019684, 0.00012357209925539792, 0.00025638286024332047, 0.00029090573661960661, 0.00017858299543149769, 0.00026009732391685247, 6.3613544625695795e-05, 0.00015428841288667172, 0.00016346422489732504, 0.00018432685465086251, 0.00022340436407830566, 0.00015437405090779066, 0.00017203131574206054, 6.5094973251689225e-05, 0.00025454262504354119, 0.00019993119349237531, 0.00019071507267653942, 0.00015140260802581906, 0.00013905882951803505, 0.00015396543312817812, 7.5189855124335736e-05, 0.00034130510175600648, 0.00026733291451819241, 0.00033535662805661559, 0.00019507028628140688, 0.00027746229898184538, 0.00015130796236917377, 0.00015114227426238358, 0.0002995844988618046, 0.00013630460307467729, 6.3510422478429973e-05, 0.00021020539861638099, 0.0001737771526677534, 0.00022129069839138538, 9.5441879238933325e-05, 0.00027867502649314702, 0.00038355725700967014, 8.0660531239118427e-05, 7.3645598604343832e-05, 0.00037397144478745759, 0.00024692239821888506, 0.00017764430958777666, 0.00011364793317625299, 0.00035667297197505832, 0.00018907614867202938, 0.00019834277918562293, 0.00022408356016967446, 0.00021836429368704557, 0.00016929517732933164, 0.00024220712657552212, 9.2168331320863217e-05, 0.00025024212663993239, 0.00012126303045079112, 0.0001829467510106042, 0.00018531913519836962, 0.00019060701015405357, 8.1935679190792143e-05, 0.00018971973622683436, 0.00011971362982876599, 0.00021918585116509348, 0.00032273749820888042, 0.00026736766449175775, 0.00034599422360770404, 0.00025274633662775159, 0.00013080716598778963, 0.00022644879936706275, 0.00021622465283144265, 0.00012528488878160715, 0.00015739248192403466, } };
const TfArray<96, int> quant27_zero = { 96, { 0,0,0,0,0,0,0,0,0,0,0,0,0,0,0,0,0,0,0,0,0,0,0,0,0,0,0,0,0,0,0,0,0,0,0,0,0,0,0,0,0,0,0,0,0,0,0,0,0,0,0,0,0,0,0,0,0,0,0,0,0,0,0,0,0,0,0,0,0,0,0,0,0,0,0,0,0,0,0,0,0,0,0,0,0,0,0,0,0,0,0,0,0,0,0,0 } };
const TfLiteAffineQuantization quant27 = { (TfLiteFloatArray*)&quant27_scale, (TfLiteIntArray*)&quant27_zero, 0 };
const ALIGN(16) int8_t tensor_data28[1*3*3*96] = { 
  /* [0][0][][] */ -37,-5,0,-41,83,-11,31,1,4,-12,-10,-25,2,-8,0,-59,-15,8,12,-11,27,28,-18,47,-3,-15,-22,-9,5,11,31,9,-69,2,-19,-63,-1,-38,-10,-34,-13,-22,31,-28,-12,32,-78,-28,-55,-15,15,59,-72,16,28,-27,3,-10,6,-8,-4,-26,0,-10,-23,-18,-38,-57,-13,30,-4,-5,29,-6,3,4,-29,-9,127,-85,-64,16,-121,-20,-1,-30,-4,-11,-49,-6,32,-42,2,51,16,19, -42,30,61,-80,-32,0,127,-28,5,-14,-32,-18,-35,2,-78,42,-6,72,80,-19,47,127,51,115,22,-7,22,79,120,30,127,-35,-127,-15,-92,-45,-37,-101,127,-108,-36,-127,-13,-22,58,-30,-43,-19,6,-5,52,127,-96,81,-93,-8,-124,-4,-8,31,-6,-127,-109,-19,-45,-3,-10,-98,-13,16,-31,109,-127,-34,15,-34,-127,-127,-13,-127,-59,6,29,-88,92,65,-35,33,-127,-1,39,-9,17,127,-9,-100, -38,-4,6,-22,61,-6,42,-7,-18,19,-4,-26,-6,-9,-5,-26,-10,2,-18,-17,46,13,-28,41,-10,-17,-30,-4,-9,16,13,7,11,3,-39,46,-6,-21,-33,15,-14,-40,27,19,-11,-33,-66,-39,-24,-12,9,46,24,39,29,-31,76,-17,0,-11,-1,-13,-57,-32,-35,-35,127,-53,-8,24,15,10,8,-15,17,21,-24,10,-47,-102,-23,1,-102,-28,35,-42,1,3,-58,-37,-17,30,7,57,10,19, 
  /* [0][1][][] */ -117,-7,44,-48,20,81,-61,-34,1,-31,-22,-23,-127,29,24,69,-14,39,103,21,29,-9,106,-23,25,24,58,-15,-28,8,-27,-3,-100,-15,80,-35,-1,-127,-36,-127,-32,18,109,-32,-59,127,-83,-92,58,63,8,-34,-126,105,80,-53,54,-32,41,-5,-1,-17,100,-70,-51,16,-30,-83,0,-15,-127,2,90,127,-1,-93,-63,-39,-49,-50,-121,9,-93,-72,55,29,-125,42,-56,127,127,-76,127,19,-53,12, 19,127,127,127,-127,-127,54,-83,127,127,-67,-98,-77,127,-21,127,127,-127,127,127,127,-77,45,-127,-127,-127,127,127,-127,127,-53,127,-29,127,127,-92,127,23,19,-24,127,-11,-127,-97,127,-18,127,127,127,-127,127,-93,120,127,-127,127,-127,127,-127,127,-106,102,97,-127,127,127,-7,127,-94,-127,-3,-127,11,120,127,73,50,-58,98,-121,-39,127,68,127,127,81,-127,127,-47,48,25,-13,-78,-19,-127,-23, -127,-38,34,-72,10,46,-57,-20,-41,-18,0,127,-94,35,28,82,-22,47,91,8,27,-16,56,-21,32,4,55,-26,-19,8,6,-5,-83,-27,53,127,2,-100,-79,-93,-39,2,34,-47,-57,-81,-80,-116,59,65,-17,-10,127,64,107,-73,122,-31,48,-35,-1,-33,-127,-74,-82,-7,-42,-61,-17,-15,-58,-13,31,-88,8,127,-42,-33,-66,-25,-127,2,-127,-84,1,34,-105,22,-45,-67,105,127,-34,-7,-67,8, 
  /* [0][2][][] */ -61,-59,-11,-23,45,8,-8,24,-9,6,32,-41,86,34,-7,-23,-2,-6,-54,-19,-32,-17,49,26,-3,-7,4,-8,-19,-7,-38,5,-23,2,15,-47,-12,-39,11,5,-43,42,41,23,26,0,-31,2,-14,27,-12,-14,-8,-5,55,-17,17,-19,15,-23,-13,11,9,77,-47,-24,110,-15,32,21,-28,-8,8,-8,-3,-57,-3,36,-23,15,-10,6,-114,-33,9,0,28,-10,-16,15,34,-27,-5,9,-20,7, -53,-77,17,-116,-19,2,52,127,-60,96,127,-26,5,51,127,94,-11,-40,72,-37,-49,-28,127,60,8,4,54,29,-29,8,-85,-45,-44,-23,-78,-10,-101,-75,80,-59,-32,-51,-8,127,30,-34,15,19,57,-2,2,-6,83,71,-55,-48,-78,-56,45,-57,127,15,101,-2,-74,-42,-19,-64,127,27,-59,4,33,-23,48,-44,-9,-24,7,92,-7,-15,-101,-78,74,-127,-6,15,-66,2,76,-21,10,-89,-40,127, -14,-12,-22,-22,48,1,7,28,-25,6,17,88,94,43,4,-23,-5,1,-32,-23,-41,-15,74,34,-11,8,10,-23,-25,8,-31,1,-16,7,-1,-2,-21,-94,5,27,-38,5,26,-4,19,-23,-12,4,12,14,-1,3,28,3,22,-20,67,-17,25,-19,-3,14,-22,4,-24,-29,-26,16,17,11,-43,-17,-35,-45,10,-29,-2,33,96,6,-5,1,-82,-19,9,4,15,4,-7,0,6,-2,0,2,2,16, 
};
const TfArray<4, int> tensor_dimension28 = { 4, { 1,3,3,96 } };
const TfArray<96, float> quant28_scale = { 96, { 0.0029644609894603491, 0.012100715190172195, 0.008120829239487648, 0.0059616938233375549, 0.011693160980939865, 0.02395322173833847, 0.0056905425153672695, 0.013362100347876549, 0.016277799382805824, 0.0069618821144104004, 0.014891333878040314, 0.0081783216446638107, 0.0064726960845291615, 0.0062221544794738293, 0.011367926374077797, 0.0083170430734753609, 0.015489086508750916, 0.02061600424349308, 0.0057347039692103863, 0.017307084053754807, 0.0071216612122952938, 0.014309870079159737, 0.0076670763082802296, 0.007532111369073391, 0.11952810734510422, 0.0073294867761433125, 0.010398998856544495, 0.0071876803413033485, 0.015921339392662048, 0.0058272425085306168, 0.008244379423558712, 0.014840343967080116, 0.0043225521221756935, 0.020648539066314697, 0.0079495199024677277, 0.0088602844625711441, 0.014506311155855656, 0.0031920699402689934, 0.0095457695424556732, 0.0033381925895810127, 0.020873639732599258, 0.012947975657880306, 0.013679705560207367, 0.0080543309450149536, 0.0072390614077448845, 0.014034573920071125, 0.0073479101993143559, 0.011104599572718143, 0.0068615595810115337, 0.019066628068685532, 0.0095091862604022026, 0.011528824456036091, 0.0057880058884620667, 0.0085343215614557266, 0.012019122950732708, 0.008314850740134716, 0.0076771988533437252, 0.023991718888282776, 0.022049594670534134, 0.018837345764040947, 0.018447365611791611, 0.013512013480067253, 0.0075967134907841682, 0.0057123573496937752, 0.010124905966222286, 0.020639421418309212, 0.0046231145970523357, 0.0053240619599819183, 0.012008839286863804, 0.020898355171084404, 0.0062434510327875614, 0.013115131296217442, 0.024649206548929214, 0.0077327713370323181, 0.0049500060267746449, 0.0096361516043543816, 0.0043919677846133709, 0.0077328309416770935, 0.003765597240999341, 0.0058530359528958797, 0.0046923370100557804, 0.0089272670447826385, 0.0038170947227627039, 0.0092505132779479027, 0.0027366254944354296, 0.021281320601701736, 0.0048219482414424419, 0.01125764474272728, 0.0040085134096443653, 0.0099371708929538727, 0.0045537138357758522, 0.013925109058618546, 0.014741605147719383, 0.0069123995490372181, 0.0062364242039620876, 0.012190037406980991, } };
const TfArray<96, int> quant28_zero = { 96, { 0,0,0,0,0,0,0,0,0,0,0,0,0,0,0,0,0,0,0,0,0,0,0,0,0,0,0,0,0,0,0,0,0,0,0,0,0,0,0,0,0,0,0,0,0,0,0,0,0,0,0,0,0,0,0,0,0,0,0,0,0,0,0,0,0,0,0,0,0,0,0,0,0,0,0,0,0,0,0,0,0,0,0,0,0,0,0,0,0,0,0,0,0,0,0,0 } };
const TfLiteAffineQuantization quant28 = { (TfLiteFloatArray*)&quant28_scale, (TfLiteIntArray*)&quant28_zero, 3 };
const ALIGN(16) int32_t tensor_data29[96] = { 14460, 1655, -5635, 9652, -1303, 943, 533, -657, 1479, -5488, -1118, -427, 4630, -4541, -2926, -6310, -535, 187, -10680, -1580, -3187, -211, -4120, -2794, 37, 6751, -9623, -3188, 4525, -3061, 2548, -966, 17278, -934, -936, 2769, 1081, 13477, -1116, 11639, 3746, 3819, -2765, 3222, -839, 1890, 7174, 2910, -5754, -79, -5206, -2754, -2156, -4706, -2184, 4163, -298, 2755, -323, 568, -3, 2540, -1026, 5715, 10454, -442, 14831, 13570, -1248, 687, 7784, -8, -68, 2143, -4438, 2059, 11764, 6763, 16505, 16277, 11940, -1905, 17201, 12642, -832, -611, 11641, -6129, 11177, -856, -10453, 590, -1390, -2680, 13032, -3314, };
const TfArray<1, int> tensor_dimension29 = { 1, { 96 } };
const TfArray<96, float> quant29_scale = { 96, { 6.9752022682223469e-05, 0.00028472271515056491, 0.00019107833213638514, 0.0001402751513523981, 0.00027513320674188435, 0.00056360522285103798, 0.00013389512605499476, 0.00031440236489288509, 0.00038300704909488559, 0.00016380898887291551, 0.00035038433270528913, 0.00019243110727984458, 0.00015229872951749712, 0.00014640363224316388, 0.00026748061645776033, 0.00019569513096939772, 0.00036444910801947117, 0.0004850824479945004, 0.00013493422011379153, 0.00040722551057115197, 0.00016756850527599454, 0.00033670282573439181, 0.00018040179566014558, 0.00017722616030368954, 0.002812426071614027, 0.00017245851631741971, 0.00024468233459629118, 0.00016912189312279224, 0.00037461976171471179, 0.0001371115940855816, 0.00019398539734538645, 0.00034918455639854074, 0.00010170711175305769, 0.00048584799515083432, 0.00018704752437770367, 0.00020847728592343628, 0.00034132497967220843, 7.5107527663931251e-05, 0.00022460635227616876, 7.8545708674937487e-05, 0.00049114448484033346, 0.00030465825693681836, 0.00032187544275075197, 0.00018951366655528545, 0.00017033086623996496, 0.00033022527350112796, 0.00017289200332015753, 0.0002612847019918263, 0.00016144846449606121, 0.00044862655340693891, 0.00022374556283466518, 0.00027126647182740271, 0.00013618837692774832, 0.00020080756803508848, 0.00028280291007831693, 0.00019564354442991316, 0.00018063998140860349, 0.00056451105047017336, 0.00051881402032449841, 0.00044323166366666555, 0.00043405566248111427, 0.00031792974914424121, 0.00017874620971269906, 0.00013440841576084495, 0.00023823308583814651, 0.00048563344171270728, 0.00010877916793106124, 0.00012527205399237573, 0.00028256094083189964, 0.00049172603758051991, 0.0001469047274440527, 0.0003085913194809109, 0.0005799813661724329, 0.00018194755830336362, 0.00011647073552012444, 0.00022673298371955752, 0.00010334041871828958, 0.00018194896983914077, 8.8602289906702936e-05, 0.00013771849626209587, 0.00011040793469874188, 0.00021005334565415978, 8.9813998783938587e-05, 0.00021765913697890937, 6.4391191699542105e-05, 0.00050073699094355106, 0.00011345760867698118, 0.00026488577714189887, 9.4317962066270411e-05, 0.00023381579376291484, 0.00010714621021179482, 0.00032764964271336794, 0.00034686131402850151, 0.0001626447046874091, 0.00014673940313514322, 0.00028682441916316748, } };
const TfArray<96, int> quant29_zero = { 96, { 0,0,0,0,0,0,0,0,0,0,0,0,0,0,0,0,0,0,0,0,0,0,0,0,0,0,0,0,0,0,0,0,0,0,0,0,0,0,0,0,0,0,0,0,0,0,0,0,0,0,0,0,0,0,0,0,0,0,0,0,0,0,0,0,0,0,0,0,0,0,0,0,0,0,0,0,0,0,0,0,0,0,0,0,0,0,0,0,0,0,0,0,0,0,0,0 } };
const TfLiteAffineQuantization quant29 = { (TfLiteFloatArray*)&quant29_scale, (TfLiteIntArray*)&quant29_zero, 0 };
const ALIGN(16) int8_t tensor_data30[16*1*1*96] = { 
  /* [0][0][][] */ 52,41,9,13,-23,-85,-20,1,-37,-74,34,-16,71,-87,69,17,-84,-51,25,10,63,4,-82,-1,-15,84,110,70,4,86,65,-33,-26,1,-4,-35,35,13,2,-10,104,22,23,-33,0,8,-2,-43,32,-57,84,-26,-61,-14,31,22,7,-53,9,35,-5,32,-64,-4,7,10,39,31,19,-19,3,24,29,47,2,30,56,-50,24,30,-33,34,21,17,-52,-17,-14,54,15,9,-92,-11,34,1,127,82, 
  /* [1][0][][] */ -10,27,-49,0,15,-31,104,-99,-49,-32,-85,-34,5,-26,-14,-38,-9,-27,-21,-25,1,-80,127,-9,-4,14,17,69,-50,8,-26,13,-15,8,3,14,-15,68,-64,79,33,-3,-18,-63,53,-73,6,35,-82,30,32,-94,-51,54,63,46,32,22,-41,8,-53,-29,-19,-25,33,21,107,18,-68,-126,26,-1,9,55,-34,41,-67,-21,87,-53,56,-25,68,-52,-31,-53,-21,16,-10,-45,8,-22,60,-74,-37,33, 
  /* [2][0][][] */ 17,0,13,-18,51,40,-46,35,-55,41,17,-43,24,-11,20,13,17,-21,-127,3,-15,-45,-17,12,-7,-1,-46,11,-40,-13,-13,74,-24,-25,-13,17,-34,19,-38,-20,75,15,10,28,9,50,7,-2,-70,4,-26,12,-13,49,15,-61,26,4,49,33,-14,-2,-10,52,41,12,-39,-3,5,9,-19,-31,32,55,29,69,-49,-13,-25,-29,35,32,35,-18,1,-61,-11,-53,-20,-29,-9,70,-4,-16,88,-26, 
  /* [3][0][][] */ 69,-22,-40,-121,-13,-30,110,-5,21,121,-53,-20,8,-45,-21,57,55,40,-42,31,-66,12,1,1,-36,91,48,-4,-45,-6,-75,59,-37,-6,11,-24,0,-51,-14,55,16,36,3,17,67,-47,-2,23,55,-68,53,-52,114,26,17,-17,-6,-6,-35,-35,-34,71,87,-3,-27,-20,110,-37,-38,-32,-70,9,33,-69,22,-61,28,-56,127,20,-17,-62,-50,-40,-29,-61,97,63,-46,51,-31,9,22,-67,2,60, 
  /* [4][0][][] */ -20,66,23,7,-17,28,-50,-16,14,-42,8,-8,10,42,-31,16,-26,-30,-27,-65,10,-61,-66,20,-31,-42,-26,17,-40,127,-74,-22,-8,-28,-3,-26,51,47,-36,12,17,14,30,-22,-54,-12,39,-32,40,-31,-43,-22,-64,36,34,21,-5,73,-54,14,-44,-47,-28,20,55,16,-61,-15,-2,-6,-18,-74,-20,58,62,70,-19,38,-58,59,17,66,41,-59,39,-51,-9,-80,-39,-57,-56,-17,-1,28,41,-3, 
  /* [5][0][][] */ 9,-16,35,-20,-14,-1,-30,3,32,0,-2,8,-22,-39,29,-19,-17,9,-60,-42,-37,25,-37,7,25,-49,78,-16,-3,53,12,83,-28,-83,33,-4,-40,-35,-6,-6,-62,3,-2,28,4,23,-100,15,-24,5,65,-19,24,-94,3,18,-13,-52,-16,-33,41,37,20,59,-47,-6,107,-27,-3,-39,4,12,-3,40,44,19,6,-23,127,58,-37,-6,-29,33,39,88,5,91,4,-40,-4,20,18,10,-35,42, 
  /* [6][0][][] */ 6,-74,79,30,-25,120,-63,-105,-17,-74,-84,84,-4,17,-17,102,29,24,14,-47,-119,-18,-90,-97,-3,-57,9,76,-104,48,3,-31,40,79,-9,-18,17,-38,53,-32,-62,39,21,-43,20,43,-90,-21,57,48,-76,-121,87,3,-69,-38,40,-28,28,-14,-40,-73,30,6,59,-77,-89,-58,-118,-3,-8,-96,-28,-83,18,-90,72,-2,-90,37,-39,75,26,-101,57,-25,-28,8,-46,81,-111,86,55,-24,61,-127, 
  /* [7][0][][] */ 16,-1,-71,30,-60,5,49,6,-117,3,95,53,-5,-69,-29,-31,-34,25,-4,21,-38,-40,-70,-59,67,62,-8,103,-21,32,14,44,-94,-127,11,116,-29,21,-60,13,-5,-8,24,-84,29,59,60,116,-16,43,-40,13,44,-35,47,-70,-54,43,-102,-14,63,19,24,-36,85,-58,113,-25,-47,-34,64,-17,-7,-39,-84,-28,55,-14,115,-6,-2,-15,-114,-38,54,-1,-62,36,-25,29,29,23,58,-25,98,14, 
  /* [8][0][][] */ 9,-61,-6,3,-15,-13,18,15,-27,5,68,47,12,29,-31,-9,60,8,8,-9,-20,-74,-42,-11,-19,-34,65,2,-14,53,-5,-30,-31,9,-11,-12,-67,-21,25,-34,2,62,38,-40,21,-9,21,-23,44,-34,55,-1,-7,4,-50,1,-15,122,-64,10,-26,-56,-61,-9,-95,-41,-21,16,1,2,33,-19,-18,-127,51,-104,18,8,-49,31,-33,-4,-2,61,72,-69,-38,42,-45,91,37,-17,-48,18,1,-51, 
  /* [9][0][][] */ -37,-45,-37,24,13,41,14,44,-43,7,49,59,-27,70,24,-47,-13,28,-20,-34,-3,37,6,24,-17,14,6,8,44,-1,17,-13,-9,-13,-1,64,-20,6,19,-5,-9,-29,24,-13,16,42,-1,31,-36,22,-1,26,127,20,-7,-14,20,-14,42,14,-34,5,78,11,14,24,83,9,36,-2,-21,26,6,-127,-26,-120,-31,-19,52,-13,-3,33,17,-30,53,3,-48,-1,-11,103,49,25,60,38,-7,27, 
  /* [10][0][][] */ 35,56,12,-11,-24,26,-40,-25,49,-4,-24,11,17,-6,-18,-49,-42,4,12,11,34,-4,-39,-36,14,-16,-105,57,-44,52,4,13,17,29,-17,8,29,-6,-1,-3,26,5,53,-49,-33,-8,8,35,6,20,16,-18,-17,-16,17,19,-21,1,-18,-7,1,-18,2,13,-13,-15,-104,-33,-40,0,40,-27,-7,28,23,6,71,-21,-97,21,-21,35,-30,-4,5,16,-66,-127,-40,25,24,35,47,-26,17,41, 
  /* [11][0][][] */ 46,-25,0,-9,-72,40,19,10,53,-18,-7,-46,34,11,5,-11,-33,58,16,-42,16,30,11,-25,30,19,48,1,12,-47,-30,21,-6,106,-99,11,10,-20,41,13,-51,44,4,3,-38,-6,-21,10,41,-24,-31,-19,-12,7,-62,80,-30,-11,-5,-26,34,14,5,-63,-6,-28,-127,-76,18,-16,-93,26,59,14,-13,-9,49,47,-101,-12,-21,-2,-47,1,-8,-18,64,58,5,-38,40,16,-39,16,84,44, 
  /* [12][0][][] */ 12,12,-37,-13,35,-27,3,42,38,-35,12,5,-4,-6,-3,14,12,-60,-28,-5,-5,59,0,52,-42,-36,-127,-15,84,-24,43,-6,-27,-76,72,-11,38,-8,25,8,-16,-53,28,30,46,-5,25,-31,-72,-10,-42,97,61,-29,13,-71,33,20,-33,-18,7,40,64,-1,-28,-19,24,37,97,20,29,24,2,-2,-14,3,-38,-71,36,-69,14,-43,38,-27,-3,12,-4,-102,-3,20,-46,22,26,94,13,38, 
  /* [13][0][][] */ -35,0,-69,36,33,31,-22,7,23,64,-40,51,-68,-2,59,-46,18,41,52,14,-38,-49,6,-2,30,31,-16,16,11,34,64,-19,-6,56,4,44,23,-29,-26,-46,-13,-22,22,30,43,46,-29,31,-46,50,1,3,-29,-28,50,36,23,-41,-19,-18,8,16,-5,-19,9,79,127,39,8,-6,-41,-14,11,50,-77,47,18,-64,113,-51,0,-30,38,14,22,81,-38,-16,-3,-29,-12,43,28,42,54,60, 
  /* [14][0][][] */ -11,60,22,22,-47,-40,14,50,-63,-22,61,-5,-85,7,62,-21,-33,17,-64,36,-28,18,-87,-1,-52,5,-54,-107,17,7,47,87,-62,35,20,-9,-10,-65,-5,-44,23,-37,38,-47,-10,54,-64,30,3,-38,78,26,-17,29,-33,32,-46,6,16,35,32,52,-10,35,17,-29,-7,-66,36,87,70,45,-61,32,14,6,18,-23,30,5,-67,97,-1,-127,87,-21,-4,9,-100,-18,-8,-13,-22,-4,48,34, 
  /* [15][0][][] */ 52,-42,37,46,53,18,-6,-14,12,32,-62,-5,83,94,-1,-15,6,12,-75,45,5,-15,13,38,57,-33,87,28,35,-40,-34,65,84,34,7,-93,67,69,73,45,68,28,-32,12,-37,-126,46,-27,-56,15,-28,3,-11,-66,-14,42,1,19,-19,17,-11,-74,-43,24,28,28,-84,47,-8,-50,11,-8,-12,-118,-58,-113,-32,6,-127,19,77,-39,49,40,-54,19,-31,-1,39,89,-5,-67,-30,-33,29,-58, 
};
const TfArray<4, int> tensor_dimension30 = { 4, { 16,1,1,96 } };
const TfArray<16, float> quant30_scale = { 16, { 0.0038021968211978674, 0.0029658859129995108, 0.0030311779119074345, 0.0034935188014060259, 0.004557089414447546, 0.0060903937555849552, 0.0021818587556481361, 0.0027631907723844051, 0.004274406936019659, 0.0038733778055757284, 0.0055518983863294125, 0.0037740862462669611, 0.0033466191962361336, 0.0036466103047132492, 0.0033316025510430336, 0.0038781866896897554, } };
const TfArray<16, int> quant30_zero = { 16, { 0,0,0,0,0,0,0,0,0,0,0,0,0,0,0,0 } };
const TfLiteAffineQuantization quant30 = { (TfLiteFloatArray*)&quant30_scale, (TfLiteIntArray*)&quant30_zero, 0 };
const ALIGN(16) int32_t tensor_data31[16] = { -19675, -3792, 1676, -14211, 11676, -14729, 25938, -10490, 11979, -13411, 14051, 11590, -2838, -27716, 2866, 5619, };
const TfArray<1, int> tensor_dimension31 = { 1, { 16 } };
const TfArray<16, float> quant31_scale = { 16, { 8.9463457698002458e-05, 6.9785550294909626e-05, 7.1321832365356386e-05, 8.2200444012414664e-05, 0.00010722563456511125, 0.00014330339035950601, 5.1337854529265314e-05, 6.5016254666261375e-05, 0.0001005742815323174, 9.1138303105253726e-05, 0.00013063290680292994, 8.8802029495127499e-05, 7.8743985795881599e-05, 8.5802596004214138e-05, 7.8390650742221624e-05, 9.1251451522111893e-05, } };
const TfArray<16, int> quant31_zero = { 16, { 0,0,0,0,0,0,0,0,0,0,0,0,0,0,0,0 } };
const TfLiteAffineQuantization quant31 = { (TfLiteFloatArray*)&quant31_scale, (TfLiteIntArray*)&quant31_zero, 0 };
const ALIGN(16) int8_t tensor_data32[96*1*1*16] = { 
  /* [0][0][][] */ -21,84,8,-25,-5,-85,-92,-27,22,-46,35,-21,57,-93,4,-127, 
  /* [1][0][][] */ -64,45,-73,-127,-88,-2,23,31,-35,-16,62,-26,16,70,52,33, 
  /* [2][0][][] */ -30,-27,-102,-48,-9,-46,49,-85,-127,117,68,-5,41,47,-86,124, 
  /* [3][0][][] */ -46,-54,14,-35,-83,10,-63,-127,-21,19,35,-72,-68,-49,-122,-50, 
  /* [4][0][][] */ 41,12,-15,34,-61,-5,-127,48,6,40,27,30,4,3,-39,-49, 
  /* [5][0][][] */ -80,94,-83,-61,30,-49,-42,-90,77,-34,22,-17,39,-127,-80,-104, 
  /* [6][0][][] */ -8,-37,-43,28,-76,65,34,-23,-22,-47,127,-20,4,20,-112,14, 
  /* [7][0][][] */ -56,90,127,-112,33,58,-28,-59,32,74,-86,-22,34,15,43,110, 
  /* [8][0][][] */ -55,44,43,20,41,1,107,127,-81,-40,-82,-115,16,69,-116,-27, 
  /* [9][0][][] */ 40,69,88,42,-126,-19,-58,-100,13,8,127,58,-51,-69,87,-47, 
  /* [10][0][][] */ -23,-127,12,-96,-117,76,32,37,-50,-37,-4,48,-24,75,-124,-4, 
  /* [11][0][][] */ 115,-71,-3,59,-102,-27,34,-12,127,111,-57,39,19,-73,-29,79, 
  /* [12][0][][] */ -111,-97,124,-47,68,0,63,23,58,-42,127,64,-7,10,-124,66, 
  /* [13][0][][] */ 4,-31,27,38,4,14,127,11,-114,18,9,28,-31,77,112,-87, 
  /* [14][0][][] */ 114,-50,127,15,86,94,121,41,70,72,60,31,93,-23,47,-35, 
  /* [15][0][][] */ 12,118,25,-82,66,127,-77,77,-43,-38,-54,-50,-47,115,-44,-72, 
  /* [16][0][][] */ -44,53,98,-48,20,83,19,-4,5,10,-29,22,93,-15,85,127, 
  /* [17][0][][] */ 27,94,84,-127,-5,-33,9,-104,-75,71,-21,25,-73,-17,125,-80, 
  /* [18][0][][] */ -59,9,-68,-124,112,71,-73,-93,-21,45,127,86,-30,95,-61,-4, 
  /* [19][0][][] */ 39,127,84,50,53,-31,6,-14,-20,85,42,100,68,61,-70,25, 
  /* [20][0][][] */ 87,-35,10,89,-55,-5,-24,45,-24,-43,-127,-44,87,-54,17,1, 
  /* [21][0][][] */ -78,-48,-8,118,-8,19,-127,67,28,9,27,31,-32,5,-66,2, 
  /* [22][0][][] */ 18,30,-88,-80,127,31,-33,35,84,58,19,52,-28,7,-37,25, 
  /* [23][0][][] */ -58,32,-22,40,-14,66,92,107,-35,127,-21,-27,-3,60,-62,-26, 
  /* [24][0][][] */ 21,-75,38,1,127,35,81,-44,48,18,69,32,-78,38,4,-7, 
  /* [25][0][][] */ 127,-23,71,4,-24,-24,-57,53,48,-33,-35,-7,97,-51,99,35, 
  /* [26][0][][] */ 77,69,104,81,72,11,-69,-19,-9,39,12,127,50,-66,25,-51, 
  /* [27][0][][] */ -64,28,-78,38,-33,74,27,-87,40,-69,127,9,52,-22,127,125, 
  /* [28][0][][] */ -48,31,-87,-127,43,-78,17,-55,-100,98,-68,23,-20,52,-38,71, 
  /* [29][0][][] */ 90,88,-80,45,40,86,-55,-35,61,65,5,59,-127,2,-28,76, 
  /* [30][0][][] */ -37,104,-107,-93,57,-62,13,-14,-69,42,-94,1,-9,58,-22,127, 
  /* [31][0][][] */ 18,-110,88,48,73,-58,-81,54,-19,-4,25,-34,-94,66,60,127, 
  /* [32][0][][] */ -97,84,-6,44,-127,60,33,80,39,-80,35,-92,34,45,50,83, 
  /* [33][0][][] */ -75,-10,55,84,-26,5,-67,-9,-57,-38,7,-24,-11,-3,-9,127, 
  /* [34][0][][] */ -16,7,-75,-103,60,-25,-40,80,22,0,-13,-35,-85,-23,-58,127, 
  /* [35][0][][] */ 65,23,16,-6,-8,21,-70,3,-16,-127,-32,13,-17,-38,30,2, 
  /* [36][0][][] */ -17,39,-127,-7,30,118,-1,39,-55,15,113,39,-14,18,-82,75, 
  /* [37][0][][] */ 57,72,57,-49,52,-127,47,-19,-120,54,-105,-33,6,21,71,41, 
  /* [38][0][][] */ -35,127,33,-62,25,-3,54,-109,-1,-5,-114,29,-30,-68,-71,20, 
  /* [39][0][][] */ 63,39,-76,-127,-11,-42,-15,-89,9,12,-26,-30,40,-17,-119,-77, 
  /* [40][0][][] */ -38,16,-55,-98,-53,-18,9,-127,-3,-16,-18,-52,53,69,27,66, 
  /* [41][0][][] */ -23,-80,-40,127,-6,-9,-69,-15,-11,-49,70,-62,-64,-10,5,33, 
  /* [42][0][][] */ -13,46,-15,-127,27,17,19,-33,46,-14,-43,17,67,-27,-28,8, 
  /* [43][0][][] */ -13,40,-15,41,120,12,46,24,10,44,16,-64,-127,-47,-4,17, 
  /* [44][0][][] */ 61,-15,7,43,-8,-5,33,28,36,-34,13,17,127,10,-51,-19, 
  /* [45][0][][] */ -11,-113,-59,98,-63,-114,-1,53,61,-10,17,18,-127,118,47,-42, 
  /* [46][0][][] */ -6,-61,32,37,-30,-40,-100,44,-15,-79,85,-1,-8,85,82,127, 
  /* [47][0][][] */ -24,-45,13,97,-7,-7,45,14,-9,-69,-127,-41,43,-19,-72,20, 
  /* [48][0][][] */ -58,102,-26,-13,14,83,-10,-127,12,-36,46,-47,59,-97,-1,-5, 
  /* [49][0][][] */ -67,0,38,-39,-3,2,122,127,-33,-20,-10,27,-50,45,-45,43, 
  /* [50][0][][] */ 61,59,-102,82,21,-127,-35,12,-57,59,-52,-25,24,-85,-95,-39, 
  /* [51][0][][] */ -44,35,-27,67,-18,69,-30,-113,-48,-94,-23,-50,16,-17,-4,127, 
  /* [52][0][][] */ -119,-4,10,16,8,27,44,22,11,-80,-37,-44,-99,-43,-127,1, 
  /* [53][0][][] */ -55,-42,-69,-98,-30,29,17,96,49,-65,-62,10,-4,44,61,127, 
  /* [54][0][][] */ -1,-57,5,0,-49,53,54,7,0,-74,42,3,-21,-18,-127,43, 
  /* [55][0][][] */ 3,-27,-44,14,63,-20,70,69,-58,-80,-127,-33,63,-37,-25,24, 
  /* [56][0][][] */ 65,-47,-65,-38,-127,24,-113,-1,-24,-25,-34,15,115,-13,73,13, 
  /* [57][0][][] */ -49,22,29,-42,98,4,36,64,-29,87,0,-1,-69,87,-127,-33, 
  /* [58][0][][] */ 25,6,-4,-7,49,-1,-53,-47,71,-127,-65,15,-82,-54,-20,59, 
  /* [59][0][][] */ -54,-16,-7,20,24,51,-127,8,53,115,-64,25,-69,14,-13,-6, 
  /* [60][0][][] */ 9,-25,8,14,-127,-35,33,12,-20,24,-1,25,15,-24,55,43, 
  /* [61][0][][] */ 32,42,-71,-23,-47,-8,-127,-69,-40,8,41,107,49,-45,97,25, 
  /* [62][0][][] */ 49,-36,46,-25,-29,34,67,115,-53,127,29,89,41,35,86,121, 
  /* [63][0][][] */ 30,-114,-15,-5,-70,23,44,-26,-11,-16,0,-4,-31,123,127,28, 
  /* [64][0][][] */ -34,14,-127,-52,53,73,47,-39,-20,-112,28,8,89,-17,-50,116, 
  /* [65][0][][] */ -35,-20,58,55,58,-40,61,51,-38,18,-127,-68,30,99,-53,15, 
  /* [66][0][][] */ -44,-103,16,-76,-63,-127,31,-8,24,-19,1,68,-53,-63,-83,79, 
  /* [67][0][][] */ -21,-113,-125,-30,-108,114,-11,-109,-91,-56,-37,-127,6,3,-96,73, 
  /* [68][0][][] */ 127,-12,13,-53,-56,-18,-43,-67,-110,-113,-17,-19,11,-15,14,-48, 
  /* [69][0][][] */ 34,17,68,-33,21,-47,-61,39,-8,127,-49,1,9,29,51,-47, 
  /* [70][0][][] */ 50,-22,-44,94,-127,15,-3,-83,71,99,30,42,40,-34,-8,27, 
  /* [71][0][][] */ 96,-78,127,120,-61,-80,47,-88,111,10,-98,59,67,-88,-6,-21, 
  /* [72][0][][] */ -18,-61,37,87,41,-19,-127,78,69,1,50,15,-38,-47,-56,78, 
  /* [73][0][][] */ 57,25,69,-127,72,-97,-82,28,-68,88,-5,7,11,-58,70,-58, 
  /* [74][0][][] */ 90,32,47,45,-127,-46,27,34,-110,-74,31,-43,31,-72,-4,27, 
  /* [75][0][][] */ 81,127,-111,48,55,67,-7,-17,-25,-21,25,57,-85,75,44,81, 
  /* [76][0][][] */ -68,-29,-11,-32,-83,1,104,14,-86,19,120,49,-60,-119,-27,127, 
  /* [77][0][][] */ -72,127,-18,39,-31,-79,24,96,86,-37,-33,67,-23,63,-31,79, 
  /* [78][0][][] */ 80,36,-105,11,-114,74,-127,-12,-34,11,-47,-31,64,-107,69,112, 
  /* [79][0][][] */ -64,-33,105,26,-3,-43,-20,-55,-41,-3,17,23,-44,127,-22,41, 
  /* [80][0][][] */ 66,74,5,-127,5,45,82,-38,9,26,-32,30,72,-38,-17,-11, 
  /* [81][0][][] */ 23,-46,19,-89,127,37,2,84,102,10,-10,-11,-14,-1,-58,-68, 
  /* [82][0][][] */ 92,30,66,24,102,-127,31,37,12,113,-64,9,-34,-44,37,-82, 
  /* [83][0][][] */ -22,76,29,9,64,47,93,47,-18,46,-34,-44,-82,63,-45,-127, 
  /* [84][0][][] */ -48,-127,-16,114,5,-58,-71,113,-92,61,-55,-1,-119,93,4,-90, 
  /* [85][0][][] */ -103,91,2,1,-5,-18,-70,-18,8,45,8,-110,-91,-81,-127,63, 
  /* [86][0][][] */ 3,52,74,103,18,-33,53,32,10,-2,-33,-89,46,67,-127,-49, 
  /* [87][0][][] */ -24,61,127,-32,-113,-34,20,40,30,-24,19,36,-74,28,-19,11, 
  /* [88][0][][] */ -19,-51,-103,30,22,39,-1,34,-12,-64,-96,-95,127,-13,12,40, 
  /* [89][0][][] */ 30,39,-5,-120,-8,-74,-58,53,127,-28,49,-103,11,-28,87,-65, 
  /* [90][0][][] */ -7,59,9,26,-34,54,46,127,-2,-31,-11,116,53,34,-33,77, 
  /* [91][0][][] */ -43,9,-20,51,94,73,-22,-124,-37,12,2,10,-73,-127,-42,-37, 
  /* [92][0][][] */ -22,73,-16,-4,-127,7,-45,40,-25,50,77,56,-8,-13,77,31, 
  /* [93][0][][] */ 96,54,94,38,-127,-90,32,44,-26,-79,0,-82,54,-42,-29,27, 
  /* [94][0][][] */ -48,-127,27,-108,21,48,-21,14,87,-9,-5,59,24,63,-40,44, 
  /* [95][0][][] */ -60,-45,-20,-51,103,84,-36,45,63,48,-51,58,-24,127,-54,25, 
};
const TfArray<4, int> tensor_dimension32 = { 4, { 96,1,1,16 } };
const TfArray<96, float> quant32_scale = { 96, { 0.0015573275741189718, 0.0020097955130040646, 0.0025337510742247105, 0.0025207099970430136, 0.0023847185075283051, 0.0012215386377647519, 0.0014217422576621175, 0.0022681131958961487, 0.002677207114174962, 0.0016273673390969634, 0.0032423657830804586, 0.0017919322708621621, 0.0021726870909333229, 0.0024067475460469723, 0.0029488846193999052, 0.0023994084913283587, 0.0020060553215444088, 0.0013802208704873919, 0.0025106130633503199, 0.0033010072074830532, 0.0025584623217582703, 0.0015148000093176961, 0.0016504771774634719, 0.0022086647804826498, 0.0024326657876372337, 0.0036649969406425953, 0.0012913825921714306, 0.0017270494718104601, 0.0030685190577059984, 0.0027828656602650881, 0.0017539531690999866, 0.0023646065965294838, 0.00097185058984905481, 0.0033348295837640762, 0.0025477230083197355, 0.0025381012819707394, 0.0022752461954951286, 0.0024838638491928577, 0.0019659954123198986, 0.0023773317225277424, 0.0039163418114185333, 0.0030434641521424055, 0.0029083658009767532, 0.0035156495869159698, 0.0042265728116035461, 0.0016252171481028199, 0.0016781114973127842, 0.0029489120934158564, 0.0019081640057265759, 0.002636629855260253, 0.0017923989798873663, 0.0031060012988746166, 0.0031603642273694277, 0.0025007310323417187, 0.0041144923307001591, 0.0030102331656962633, 0.0025902283377945423, 0.0022548316046595573, 0.0017560113919898868, 0.0026451938319951296, 0.0032167979516088963, 0.0020768942777067423, 0.0017371887806802988, 0.0021195418667048216, 0.0019028644310310483, 0.0020999426487833261, 0.0016788085922598839, 0.0024345521815121174, 0.0018307245336472988, 0.00282144988887012, 0.0018458082340657711, 0.0017989155603572726, 0.0032315878197550774, 0.0019720052368938923, 0.001821142272092402, 0.0020623253658413887, 0.0022923676297068596, 0.0024496256373822689, 0.0018821785924956203, 0.0026916053611785173, 0.0024089019279927015, 0.0020887590944766998, 0.0013882549246773124, 0.0031387882772833109, 0.0014013713225722313, 0.0024580147583037615, 0.0033130240626633167, 0.0033298935741186142, 0.00088099302956834435, 0.0029464045073837042, 0.0026001750957220793, 0.0019772301893681288, 0.0010471272980794311, 0.0020491245668381453, 0.0029398621991276741, 0.0025207703001797199, } };
const TfArray<96, int> quant32_zero = { 96, { 0,0,0,0,0,0,0,0,0,0,0,0,0,0,0,0,0,0,0,0,0,0,0,0,0,0,0,0,0,0,0,0,0,0,0,0,0,0,0,0,0,0,0,0,0,0,0,0,0,0,0,0,0,0,0,0,0,0,0,0,0,0,0,0,0,0,0,0,0,0,0,0,0,0,0,0,0,0,0,0,0,0,0,0,0,0,0,0,0,0,0,0,0,0,0,0 } };
const TfLiteAffineQuantization quant32 = { (TfLiteFloatArray*)&quant32_scale, (TfLiteIntArray*)&quant32_zero, 0 };
const ALIGN(16) int32_t tensor_data33[96] = { 6609, 2660, 390, -1034, 4286, 8630, 8362, 1331, -223, 5623, 842, -3964, 3081, 2532, 6, -192, 4359, 6819, 78, 81, 3137, 7447, 6714, -1727, -3245, -242, 8776, 244, 1100, 924, 6443, -1543, 11328, 1901, 3289, -3151, 532, -3160, 427, 1571, 1222, 1142, 1389, -611, 852, 2662, 4557, 2701, 4028, 2438, 5763, 1270, -1457, 1533, 618, 1781, 1754, 2388, 5307, 904, -946, 4332, 4296, 3461, 3758, 4585, -5084, 1892, 4397, -832, 4879, 1328, 1436, 2765, 4246, 1611, -381, 1824, 2781, 2363, 2276, 2640, 7558, 241, 4248, 2878, 409, -1201, 14835, -480, 653, -1883, 11365, 2769, 256, -307, };
const TfArray<1, int> tensor_dimension33 = { 1, { 96 } };
const TfArray<96, float> quant33_scale = { 96, { 0.00011882699618581682, 0.00015335115313064307, 0.00019332993542775512, 0.00019233487546443939, 0.0001819584722397849, 9.3205679149832577e-05, 0.00010848158854059875, 0.00017306127119809389, 0.00020427590061444789, 0.00012417115794960409, 0.00024739856598898768, 0.0001367277727695182, 0.00016578007489442825, 0.00018363932031206787, 0.00022500539489556104, 0.00018307934806216508, 0.00015306576096918434, 0.00010531342559261248, 0.00019156445341650397, 0.00025187301798723638, 0.00019521544163580984, 0.0001155820646090433, 0.00012593448627740145, 0.00016852523549459875, 0.00018561694014351815, 0.00027964610490016639, 9.8534903372637928e-05, 0.00013177709479350597, 0.0002341337240068242, 0.00021233783627394587, 0.00013382990437094122, 0.00018042390001937747, 7.4154013418592513e-05, 0.00025445371284149587, 0.0001943960232893005, 0.00019366186461411417, 0.00017360552737955004, 0.00018952344544231892, 0.00015000911662355065, 0.00018139484745915979, 0.00029882419039495289, 0.00023222199524752796, 0.0002219137386418879, 0.00026825061650015414, 0.00032249538344331086, 0.00012400709965731949, 0.00012804304424207658, 0.00022500749037135392, 0.00014559646660927683, 0.00020117977692279965, 0.00013676338130608201, 0.0002369936992181465, 0.00024114167899824679, 0.00019081044592894614, 0.00031394342659041286, 0.0002296864113304764, 0.00019763925229199231, 0.0001720478612696752, 0.00013398694864008576, 0.00020183323067612946, 0.00024544767802581191, 0.00015847090980969369, 0.00013255074736662209, 0.00016172499454114586, 0.0001451921125408262, 0.00016022953786887228, 0.00012809623149223626, 0.00018576087313704193, 0.00013968769053462893, 0.00021528189245145768, 0.00014083861606195569, 0.00013726060569752008, 0.00024657617905177176, 0.00015046767657622695, 0.00013895655865781009, 0.00015735927445348352, 0.00017491192556917667, 0.00018691099830903113, 0.00014361373905558139, 0.00020537451200652868, 0.00018380371329840273, 0.00015937621355988085, 0.00010592643957352266, 0.00023949540627654642, 0.00010692724754335359, 0.00018755110795609653, 0.00025278990506194532, 0.00025407708017155528, 6.7221408244222403e-05, 0.00022481616178993136, 0.00019839820743072778, 0.00015086635539773852, 7.9897763498593122e-05, 0.00015635201998520643, 0.00022431697288993746, 0.00019233947386965156, } };
const TfArray<96, int> quant33_zero = { 96, { 0,0,0,0,0,0,0,0,0,0,0,0,0,0,0,0,0,0,0,0,0,0,0,0,0,0,0,0,0,0,0,0,0,0,0,0,0,0,0,0,0,0,0,0,0,0,0,0,0,0,0,0,0,0,0,0,0,0,0,0,0,0,0,0,0,0,0,0,0,0,0,0,0,0,0,0,0,0,0,0,0,0,0,0,0,0,0,0,0,0,0,0,0,0,0,0 } };
const TfLiteAffineQuantization quant33 = { (TfLiteFloatArray*)&quant33_scale, (TfLiteIntArray*)&quant33_zero, 0 };
const ALIGN(16) int8_t tensor_data34[1*3*3*96] = { 
  /* [0][0][][] */ 36,100,-16,37,-25,-9,27,70,104,-44,-106,82,-27,-12,40,-43,-127,12,20,93,41,54,80,95,14,-15,-55,4,3,20,24,-18,-92,17,-34,83,-24,58,-18,-20,35,-56,-23,24,-75,-6,20,-12,-22,-58,-56,-33,49,47,-30,-5,-88,-71,-89,-127,-127,9,-110,-10,-25,50,29,6,10,54,32,-11,-49,3,43,8,14,-7,-102,34,13,-41,50,-19,-112,-40,-37,24,-127,4,-63,20,87,-15,55,-12, -29,-22,10,91,6,90,-37,18,75,52,-123,86,-35,-61,-113,103,-72,50,46,114,127,10,108,127,25,19,12,49,13,127,-12,-127,62,75,21,30,67,127,-56,-92,127,-19,58,127,-4,-33,127,-81,22,-114,-107,-59,69,127,-33,-127,4,24,-127,-44,-53,-127,-50,68,-29,90,81,-9,24,127,127,1,-55,17,-41,-85,51,-42,-79,127,3,-38,127,-33,-127,-38,127,48,75,76,-80,-8,127,-40,127,42, 49,-77,19,78,-13,-12,-11,50,46,38,-74,32,-20,41,40,-71,-117,6,55,54,34,41,63,111,21,-66,20,35,6,41,3,-48,-64,-78,-23,70,2,46,-2,-11,10,20,-36,39,0,26,9,-11,70,-111,8,-14,10,-7,18,-33,41,-76,-29,-81,-73,5,-107,-16,37,14,-62,5,-5,36,14,24,-16,-48,-16,7,-13,14,-67,14,2,-108,27,-34,-67,-30,15,-2,-96,-3,-29,27,33,47,35,-5, 
  /* [0][1][][] */ 79,-5,13,127,-2,-58,121,56,-27,-127,-127,127,0,-127,-22,18,-86,-41,109,56,-122,-13,-127,-35,-24,72,-127,127,-101,68,127,71,1,46,-10,127,-97,63,-32,-68,52,-127,-1,-5,-127,-47,7,-126,-118,-105,-108,40,127,-63,89,-27,-127,-1,-91,16,-9,-87,-62,56,-97,-15,127,-53,-41,8,-56,-105,-127,92,127,-127,127,86,-78,-34,127,-74,-43,127,-22,-13,-19,127,10,6,-76,11,5,-101,68,-29, -127,0,-56,93,-118,-127,-127,-127,80,10,-19,62,-78,-115,-32,127,-100,-127,127,127,27,-127,-125,89,-127,127,12,81,-103,11,-90,57,-127,72,127,-8,24,91,127,-81,-52,15,2,9,-41,-127,-92,-127,2,-67,-57,127,72,78,60,-106,25,36,76,10,-2,-23,-127,127,8,-127,101,127,22,23,-111,-62,-15,78,-109,-109,118,127,82,-38,-83,29,-119,95,-7,-63,105,126,125,127,-127,-127,-101,-79,65,127, 58,-6,61,120,-26,-38,15,58,-59,104,-93,100,6,-14,-127,45,-10,-19,45,18,-100,12,-68,-41,-11,21,117,0,127,78,34,-109,-24,-127,-21,114,-127,56,-64,-66,19,61,5,14,-19,-32,-4,-72,127,-127,-67,-4,44,-84,-127,16,93,-4,-117,96,28,-67,-22,49,127,-39,-27,-8,-39,-4,-42,-5,-97,-127,-5,-84,-34,-9,-127,-23,-98,-127,-35,106,-94,6,4,27,-30,-2,10,26,-9,127,18,-9, 
  /* [0][2][][] */ 34,-127,50,4,0,-4,30,41,-47,-64,-1,-25,26,27,30,9,-79,26,43,76,-21,33,15,-43,5,111,-14,-11,-16,30,14,22,-27,-36,-46,27,25,15,30,-3,10,2,-21,-28,-50,-24,-27,50,-20,4,-82,67,-15,-30,-38,-48,-14,6,-8,45,-3,-31,14,-15,-45,65,-37,-34,28,29,-4,91,2,21,32,-25,-100,-58,1,24,21,-19,-27,-54,-101,52,-35,26,-49,37,-10,8,2,0,30,-44, -54,20,127,1,127,55,-26,22,-127,-5,-96,-47,127,-3,-15,9,-39,74,-40,-42,0,23,61,-41,43,22,-20,23,-8,104,3,6,-24,-2,5,-39,67,44,58,-127,-7,0,-127,-1,-68,2,-60,2,-22,-51,-57,118,90,-78,-41,-120,-13,127,-7,14,81,-110,60,45,-30,31,-39,-9,127,3,-14,97,-59,45,-16,-64,-50,-95,-32,-16,-4,-51,-53,-76,-14,127,42,39,118,61,33,11,-20,-21,11,-31, 36,101,47,4,-20,-16,-3,46,-5,47,-44,-7,18,-15,18,57,-119,25,1,27,-15,19,8,-50,0,126,16,19,12,-2,-9,-84,-32,-45,-51,9,30,8,18,-27,6,1,6,1,-37,11,-30,31,43,-2,-127,48,13,-36,13,-8,-1,32,-23,106,-10,-5,-10,-24,29,30,-102,-3,37,7,-14,127,37,4,-9,-5,-55,-34,-26,23,-9,-19,-25,-39,-4,37,-39,26,-60,73,-1,0,-4,18,15,-30, 
};
const TfArray<4, int> tensor_dimension34 = { 4, { 1,3,3,96 } };
